{
  "color": "#686de0",
  "width": 10,
  "maxVelocity": 2,
  "visionDistance": 50,
  "brain": {
    "weights": [
      [
        [
          0.36395129348357214,
          -0.26380804872114955,
          0.19560037812585135,
          0.7115823610248917,
          0.03955031064175469,
          -0.8801012710767676,
          -0.6152002023723798
        ],
        [
          0.381753135235307,
          -0.8387435940713528,
          0.644104294770822,
          -0.14117784606863287,
          0.39317224780940435,
          0.2469723909835263,
          0.5274593214100269
        ],
        [
          -0.17655273646514338,
          -0.3870363872211408,
          -0.8323645191480197,
          -0.8588283536507905,
          -0.5062770771601937,
          0.7116602655182966,
          -0.2955934899956724
        ],
        [
          0.2133561073825379,
          0.10374244788757915,
          -1.000958666818024,
          0.47053805405067384,
          -0.07203911987132135,
          -0.7582920722698129,
          -0.05926329173997654
        ],
        [
          0.8063411422687442,
          0.5267793098881504,
          0.5070018557866556,
          -0.34676907227910747,
          -0.9847214405172668,
          0.5379317839970603,
          0.9940536841964609
        ],
        [
          0.18109959886961427,
          0.7094851311175727,
          0.28981430565402,
          -0.4855041889888446,
          -0.22786135007722225,
          -0.633353779816909,
          -0.7083386545618816
        ],
        [
          -0.17746921817129688,
          -0.04090110403618028,
          -1.3023340431177657,
          0.06973921629623624,
          -1.0784984142246186,
          0.9933584827364098,
          1.0461227286957948
        ],
        [
          -0.9479777805958494,
          -0.05042014299619964,
          -0.6526856740542609,
          -0.41378281636528613,
          0.8358915954961642,
          -0.1706022960608416,
          0.702329719536047
        ],
        [
          -0.5886136142295011,
          0.9167834883277085,
          -0.3655362799487546,
          1.2305769157984763,
          -0.37685151327665417,
          0.0819645032462143,
          -0.7431673249176024
        ],
        [
          0.45041354406097384,
          0.5044838542891429,
          0.33964142121047675,
          -0.755463453721728,
          -0.31881342870016244,
          0.8844936765393723,
          0.8171893476178054
        ]
      ],
      [
        [
          -0.19307345910803797,
          0.6974383331871059,
          -0.9881935215906741,
          -0.708185385717845,
          0.5410574358791536,
          0.37916748487891927,
          0.6788756112902108,
          0.07130959731185589,
          0.9166855982475586,
          -0.41803013699284636
        ],
        [
          -0.8700651712357461,
          0.6363400367886884,
          0.665355996082357,
          -0.8621003606442732,
          0.24243059112700444,
          0.11254673238586972,
          0.9720596774091254,
          0.8782104310637311,
          0.6252277137678561,
          0.3119047917527788
        ]
      ]
    ],
    "biases": [
      [
        [
          -0.6646485261082156
        ],
        [
          -0.26850439043782875
        ],
        [
          0.6233682297055224
        ],
        [
          -0.039510647464839635
        ],
        [
          -0.5710721667417311
        ],
        [
          -0.04160746463238935
        ],
        [
          0.9397565275523996
        ],
        [
          0.2977781100897653
        ],
        [
          0.34733929040955597
        ],
        [
          0.09119085339594588
        ]
      ],
      [
        [
          0.9507050365092217
        ],
        [
          0.40427399290995275
        ]
      ]
    ]
  }
}