[{"color":"#686de0","width":10,"maxVelocity":2,"visionDistance":50,"brain":{"weights":[[[0.7239141834610903,0.15847117731005222,0.056506845686625784,0.49154126421463484,0.6240018254277919,0.4297096138973757,-0.5630136719984467],[-0.22488744229086655,-0.3997943114717075,-0.2484280220862769,-0.191697014041741,0.281680843417109,0.34634040030735114,0.3765916965708558],[0.03105760157511761,-0.2024532275900669,-0.7373995554631401,-0.231525380222538,-0.7288847431079115,0.6018531716009587,-0.385687130961328],[-0.021496379188464365,0.1993916283318049,-0.3352574157890694,0.5396306723414968,-0.9776886545939649,-0.7260666259496699,0.9484379116938895],[-0.33399720900192065,-0.6587200353101668,0.7159628642047007,-0.20925759672274935,0.6398756925111191,-0.10337503653109126,0.1638103718854198],[0.24567802634007663,0.701977502673387,0.6807378225423129,-0.372973072106604,-0.017199873225874573,0.5095988097314152,-0.9904602745701989],[0.3782450715318453,-0.9261197980706517,0.2098953083770383,0.8129027111630969,-0.9795514372590575,0.3363754042118472,0.8872907564118526],[0.841428661756555,-0.945716990783063,0.45130250669658123,-0.3416512088358328,-0.5764475557789646,0.792339319225887,0.4479455574362634],[-0.31501064183458405,-0.6378456287924839,0.3757075322797432,0.7056895519179402,-0.2801556991969095,0.18643702244221916,-0.473721207493768],[0.445637572380692,0.006116668797230718,0.744190860989187,-0.14596101638506842,-0.41740714300572557,0.474144959331805,0.72575169871739]],[[0.1464062585217798,-0.43142837341276996,-0.09158225265465536,-0.9381343363979239,-0.44250384952340827,0.9189191803990475,0.47159053489558955,0.7355918022808587,-0.9964212134909888,0.8446475952804602],[-0.3096522875940393,0.8118428532724191,0.707124795287978,-0.8706165983672491,0.41079597647880073,0.8098449332014155,0.6583140132388765,0.9321497717556211,0.33769456923177854,-0.17095657672865894]]],"biases":[[[0.5323112102808771],[0.2792190226977891],[-0.15171047954188688],[0.010259627850464081],[-0.8794767036175163],[-0.46831552840348045],[0.2540266137398559],[0.35114212790137245],[-0.47491787492587567],[-0.5735008373521013]],[[0.5177883472655052],[-0.8510938977220099]]]},"time":4000,"isDone":false,"fitness":0.034375},{"color":"#686de0","width":10,"maxVelocity":2,"visionDistance":50,"brain":{"weights":[[[0.5483179430755925,-0.8774114128276019,-0.5907402307503615,-0.4846534012215226,-0.013718164601548073,-0.754488671016811,-0.7397987137126631],[-0.0777115576954954,-0.7804801342520804,0.43125500527245786,0.2766195101611628,-0.3901898655269714,0.5802012072470526,0.7019207689553177],[-0.3464555486232106,-0.7744127417474719,0.898854831515132,-0.9008035475905546,-0.7496903183585578,-0.20533321762011936,0.7117859633667581],[-0.011979807602363127,-0.051905670914715714,-0.8850712315786771,0.2116884452466572,-0.05240043607802188,0.2865287812386855,0.14880801284647216],[0.41132587319716946,-0.0833980507376083,-0.6384131308958788,0.9209116315664491,-0.940364622727257,0.689752915718497,0.6530866987413405],[0.20080721992917416,-0.5540710488858647,0.38731235219318233,0.6973133113242417,-0.5074793165178504,-0.5521030901134325,0.6074345473210426],[-0.21653445544494165,0.32986795646043726,-0.9321982818544726,0.18976353999169432,-0.21849085740654373,1.0134770410773761,-0.4556403202215707],[-0.840190223606594,-0.04598975229540862,-0.5047723590049957,-0.5663885225362704,0.2512500433185455,-0.4173633517785178,0.7002672676691227],[-0.5871167313260118,0.936810702259145,-0.2748680399576618,0.9455388194754695,-0.3252909983945056,-0.5964495453838823,-0.5526857466359164],[-1.0246803708152508,0.5760175907800982,0.2300896611337177,-0.33250813003192764,-0.12092894402340165,0.7966718532987561,0.8782062904624239]],[[-0.16249291415155256,0.5894694184004643,-0.8760852772272704,0.007629435370678422,-0.912659595791531,0.4202838747366815,0.7800359312966108,-0.15361814897361395,0.8366714783196241,-0.4633373160410512],[-0.7450525384816058,0.5807867360449311,0.5052182378588596,-0.6764671310905108,0.41132179690191767,0.06777310411592,0.29736273566982113,0.8310281437111604,0.5525132432594375,0.1042768889788845]]],"biases":[[[0.05298777036314453],[0.19571585727068702],[-0.3239885524310476],[-0.02016223110324436],[0.015747329256856776],[0.0778091305863257],[0.8968547019839822],[-0.723260368685525],[0.24747998988800246],[0.5132608183444978]],[[0.6940243667945942],[0.8920397787874621]]]},"time":10433,"isDone":false,"fitness":0.06531029489017932},{"color":"#686de0","width":10,"maxVelocity":2,"visionDistance":50,"brain":{"weights":[[[0.5483179430755925,-0.8774114128276019,-0.5907402307503615,-0.4846534012215226,-0.013718164601548073,-0.754488671016811,-0.7397987137126631],[-0.0777115576954954,-0.7804801342520804,0.43125500527245786,0.2766195101611628,-0.3901898655269714,0.5802012072470526,0.7019207689553177],[-0.3464555486232106,-0.7744127417474719,0.898854831515132,-0.9008035475905546,-0.7496903183585578,-0.20533321762011936,0.7117859633667581],[-0.011979807602363127,-0.051905670914715714,-0.8850712315786771,0.2116884452466572,-0.05240043607802188,0.2865287812386855,0.14880801284647216],[0.41132587319716946,-0.0833980507376083,-0.6384131308958788,0.9209116315664491,-0.940364622727257,0.689752915718497,0.6530866987413405],[0.20080721992917416,-0.5540710488858647,0.38731235219318233,0.6973133113242417,-0.5074793165178504,-0.5521030901134325,0.6074345473210426],[-0.21653445544494165,0.32986795646043726,-0.9321982818544726,0.18976353999169432,-0.21849085740654373,1.0134770410773761,-0.4556403202215707],[-0.840190223606594,-0.04598975229540862,-0.5047723590049957,-0.5663885225362704,0.2512500433185455,-0.4173633517785178,0.7002672676691227],[-0.5871167313260118,0.936810702259145,-0.2748680399576618,0.9455388194754695,-0.3252909983945056,-0.5964495453838823,-0.5526857466359164],[-1.0246803708152508,0.5760175907800982,0.2300896611337177,-0.33250813003192764,-0.12092894402340165,0.7966718532987561,0.8782062904624239]],[[-0.16249291415155256,0.5894694184004643,-0.8760852772272704,0.007629435370678422,-0.912659595791531,0.4202838747366815,0.7800359312966108,-0.15361814897361395,0.8366714783196241,-0.4633373160410512],[-0.7450525384816058,0.5807867360449311,0.5052182378588596,-0.6764671310905108,0.41132179690191767,0.06777310411592,0.29736273566982113,0.8310281437111604,0.5525132432594375,0.1042768889788845]]],"biases":[[[0.05298777036314453],[0.19571585727068702],[-0.3239885524310476],[-0.02016223110324436],[0.015747329256856776],[0.0778091305863257],[0.8968547019839822],[-0.723260368685525],[0.24747998988800246],[0.5132608183444978]],[[0.6940243667945942],[0.8920397787874621]]]},"time":10433,"isDone":false,"fitness":0.06531029489017932},{"color":"#686de0","width":10,"maxVelocity":2,"visionDistance":50,"brain":{"weights":[[[0.616935881364868,-0.009105484436934375,0.02906749592366522,0.8105734906854721,0.6222553861937294,-0.7512071342916282,-0.7389432268876674],[-0.26415039994550965,-0.7793848367183963,0.4730707073969996,-0.12398560010485705,0.2823519482829476,0.3883922413282421,0.7015180115066633],[-0.36928747246104643,0.8960698092049967,-0.683834345552497,-0.8915708463378489,-0.7556324193742816,0.6114014765960538,-0.37839348873812234],[-0.03825219797818499,0.09903455087040866,-0.9657172972766938,0.5268776421940172,-0.05791167239594913,-0.7703516841558143,0.09838772263477669],[0.384590464007701,-0.7211635530053004,0.698860907122257,-0.18759624030800107,-0.9289697495726325,0.6756206638193532,0.6221974321167298],[0.13253732977277324,0.6211718210518992,0.409293732774843,-0.30481218336353555,-0.08728743083814522,-0.5175581799382978,-0.919555533474081],[-0.24104295940055342,0.37501568893439186,-1.0001951544863168,0.17228634972892556,-0.9472189280092314,0.21573650551284843,0.8589373398239362],[-0.8363811075060757,-0.8770060252293752,-0.4755961074135966,-0.566327530995994,0.24405130878496065,-0.4206789672717638,0.718996373911398],[-0.5619833975183649,1.0002316389327623,0.3639031922220261,0.8922058095743177,-0.35882783821134645,0.2268036997279724,-0.6061616644214374],[0.4620949793590663,0.09200037014030532,0.7350756909198538,-0.13960994795748716,-0.16474763106017049,0.801348804339345,0.8941666229075063]],[[0.16435234116560296,0.5784036468454469,-0.8777556614260064,-0.926370747160797,-0.8418138399366059,-0.003164655921206662,0.8027761389534059,-0.07350666371542187,0.8080231709040122,-0.42947430022437433],[-0.3216640411954783,0.6183735103849711,0.6242522958159729,-0.8746140984683981,0.4459615804784932,0.042578982167619676,0.6252286435672814,0.9115237467420689,0.011658259350042409,0.11211279425656154]]],"biases":[[[0.14295443998482626],[0.2628882375811871],[-0.27415018467801866],[-0.030371239643023462],[-0.05151331336833041],[0.03190182004770889],[0.8706389153286915],[-0.7019830086240146],[0.28419311730322555],[0.5401472324805707]],[[0.7357882426767622],[0.8893267228373638]]]},"time":8033,"isDone":false,"fitness":0.07349374568224244},{"color":"#686de0","width":10,"maxVelocity":2,"visionDistance":50,"brain":{"weights":[[[0.6574701189576806,-0.05838498302803664,-0.0035388605497451223,0.791313642780497,0.5803134747317771,-0.6688424676414771,-0.7306871483545141],[0.2800295207342668,0.24990837501435825,0.4360178728917535,-0.08768939717871117,0.2879906911766791,0.43334607328168306,0.7121510518525495],[-0.36928747246104643,-0.4782337657404296,-0.6993965046290277,-0.8745430476666356,-0.7098185901442609,0.6631571636931343,-0.37643796896659015],[0.0017808227916038116,0.12488974586580674,-0.9232491670833471,0.5312470546311584,-0.10872064194169619,-0.7491873844353708,0.06051811990740209],[0.295568171746031,-0.698735255067224,0.6870800221885909,-0.19726814664308379,-0.961515267952721,0.7336642370303299,0.22526410760735252],[0.1581758656158978,0.6648346608223984,0.4275638627802112,-0.31284866763951724,-0.07135684836849623,-0.5542688609444895,-0.8223006352784402],[-0.2734429982779749,0.4084641586627127,-1.0202928970868679,0.12961350176716258,-0.983043670009696,0.18769994162560383,0.8761691962568245],[-0.8363811075060757,-0.8736010274180054,-0.5086872442958432,-0.526095216354619,0.7893977856268553,-0.42534892044881556,0.6822053275882165],[-0.16151871330299344,1.001302946436458,0.36122861834335557,0.956202311172701,-0.3616635581132973,-0.14803007271203153,-0.5740278369499175],[0.45616487528095184,0.1322907652860803,0.7636371259168091,-0.17150949980579408,-0.13671446770854673,0.7371138243839234,0.8167357157521328]],[[-0.1916756390317501,0.5498230240912135,-0.8826251496142435,-0.9290923574473363,0.5438436958658142,0.3793417242293248,0.7130867851348555,-0.06484637070117696,0.8341118506286819,-0.461430950906799],[-0.3373606818681537,0.6215760681065499,0.5985831470575803,-0.8521909345577537,0.42656616894687677,-0.01865864372376231,0.7088800104521239,0.9115237467420689,0.7875236751550729,0.024164400444640848]]],"biases":[[[0.038828546078732804],[0.2348744256794418],[-0.2772178829244833],[0.008826571602879398],[-0.027775353228410668],[0.039912679947019025],[0.9455650397122535],[-0.6960303994117006],[0.31453103966807205],[0.4976471455615559]],[[0.7048759438289385],[0.9386005835788872]]]},"time":8633,"isDone":false,"fitness":0.08013637754432999},{"color":"#686de0","width":10,"maxVelocity":2,"visionDistance":50,"brain":{"weights":[[[-0.36081330778022463,-0.8142323448504993,-0.5238410482054188,0.3761192510981097,0.036227155385693904,-0.7489680210920933,-0.4560726384712392],[-0.23242226715018793,-0.497780082926858,0.5392403246206201,-0.13872887743539367,-0.37294709899217415,0.42110634684108345,0.3236458435105105],[0.025429351969413663,-0.5841419602911132,-0.7156975239192502,-0.852940471992421,-0.6803114521958451,0.6375995581775077,-0.312076612255358],[0.015352808913431992,0.05316649285289006,-0.8977006131100216,0.5127253243692584,-0.007970365253363657,-0.798254018093873,0.09660846278537799],[0.4262222775581289,-0.7019516379200028,0.6412741508390624,-0.1798945765026806,-0.9520305059053816,0.728456927739824,0.6059548541190369],[0.15130177526170893,-0.5557008185498521,0.37288414120276236,-0.36872880815544556,-0.5172330601495371,-0.4912382187246238,-0.948489964568342],[-0.24502820981666232,0.4209588741283219,-1.03815669119577,0.2116082965071202,-1.0206483722079067,0.2958783848164113,0.8487395525957195],[-0.739550953243433,0.02713438748054116,-0.4621164191345366,-0.516802022611485,0.464001992845339,-0.41130553484251325,0.7008442985095074],[-0.5362117517322603,0.9158909395256924,0.3755208296411949,0.9440199303325096,-0.40268717251774117,0.15084173438466159,-0.6191192723640082],[0.4929974738347596,0.09318334428181602,0.19336522247125434,-0.34020304779630045,-0.14604870837000483,0.8032146503230913,0.903967534924157]],[[0.18518745534274567,0.5972220184112847,-0.12745794874942043,-0.9169808565702753,0.6432654178973075,-0.018069206117814186,0.8348125024960814,-0.10409347215727802,0.8313050752327218,-0.46788799455332375],[-0.3105713062445927,0.6369145350261048,0.7289884268053395,-0.85070282698069,0.4069161492645636,0.04220260876379286,0.6858126941419483,0.9576468955902845,0.29025790341032004,0.08478320164629968]]],"biases":[[[0.06875591708822601],[0.26986119770516526],[-0.2931176349023754],[-0.08938246171314206],[-0.03916395002158535],[0.05227413355535848],[0.8154419492633075],[-0.6532198573364448],[0.2930680201642536],[0.627142870907052]],[[0.7315159343236879],[0.8201197644511561]]]},"time":9833,"isDone":false,"fitness":0.08019131356235591},{"color":"#686de0","width":10,"maxVelocity":2,"visionDistance":50,"brain":{"weights":[[[0.5574359537619793,-0.9270423499018726,-0.6037334405357314,0.8386335637028313,0.03918139399507106,-0.7294654167592907,-0.6833572501208828],[-0.20840091776459857,-0.7563146403163057,0.4879101560559713,-0.34121060412580023,0.25853268613491687,0.4109176563637192,0.7332293904369582],[-0.38539673007156866,0.9065384985820477,-0.6165223200058012,-0.8548323754235166,-0.8060530711016948,0.6525712078768262,-0.4045713330754084],[0.02444451864776974,0.18866501929600465,-0.8934820299340046,0.6117195237530317,-0.05243556638930948,-0.6968674964217797,0.07875184541740948],[0.41857057268871645,-0.7024036795764135,0.6411881468017556,0.9131738243960686,-0.9843741457466056,0.6374798214164088,0.5999857590867858],[0.13023741789729731,0.6059439730186376,0.469797684065935,-0.40507279650124994,-0.09204430394632472,-0.5304501041605004,-0.9623341750932027],[-0.22099284448655734,-0.017301368917756875,-1.0133254404287548,0.25404458777557204,-0.9644275023739921,1.0470714021027363,0.8657580904528128],[-0.8937428262949311,0.03443055807569559,0.7691096769687945,-0.6081834098401283,0.18281681283517834,-0.45305302626139576,0.7053634371092901],[-0.5674668755133161,1.0621943701687173,0.37906270912037865,0.7842064273126053,-0.4031488422190535,0.23711574363999094,-0.6319101695865905],[0.46085495267371557,-0.4500624621276671,0.2706541607513362,-0.33986241999499556,-0.20881582170561905,0.7775768618074484,0.8979760988872592]],[[0.11022487261432982,0.6261519925169279,-0.15279334003142328,0.09953833487893629,-0.9683001421252311,-0.052730139670003874,0.7293848379266535,-0.06322866915423388,0.8652394746890646,-0.37386243757475573],[-0.2909364120691793,0.5936084000231514,0.584143348848161,-0.6921159435319981,0.3746852666698956,0.08231867886159548,0.6537186572307145,0.9389679022458668,0.4510285729286785,0.14902540549551158]]],"biases":[[[0.20098163766724508],[0.30691837166125613],[-0.273556222305995],[-0.036841724101221524],[-0.12492406996756376],[0.037338321391696724],[0.9020018030764922],[-0.7449357187179038],[0.3636298038171847],[0.5767647587400073]],[[0.673887841818118],[0.8621897350290115]]]},"time":17633,"isDone":false,"fitness":0.11077763322298508},{"color":"#686de0","width":10,"maxVelocity":2,"visionDistance":50,"brain":{"weights":[[[0.5574359537619793,-0.9270423499018726,-0.6037334405357314,0.8386335637028313,0.03918139399507106,-0.7294654167592907,-0.6833572501208828],[-0.20840091776459857,-0.7563146403163057,0.4879101560559713,-0.34121060412580023,0.25853268613491687,0.4109176563637192,0.7332293904369582],[-0.38539673007156866,0.9065384985820477,-0.6165223200058012,-0.8548323754235166,-0.8060530711016948,0.6525712078768262,-0.4045713330754084],[0.02444451864776974,0.18866501929600465,-0.8934820299340046,0.6117195237530317,-0.05243556638930948,-0.6968674964217797,0.07875184541740948],[0.41857057268871645,-0.7024036795764135,0.6411881468017556,0.9131738243960686,-0.9843741457466056,0.6374798214164088,0.5999857590867858],[0.13023741789729731,0.6059439730186376,0.469797684065935,-0.40507279650124994,-0.09204430394632472,-0.5304501041605004,-0.9623341750932027],[-0.22099284448655734,-0.017301368917756875,-1.0133254404287548,0.25404458777557204,-0.9644275023739921,1.0470714021027363,0.8657580904528128],[-0.8937428262949311,0.03443055807569559,0.7691096769687945,-0.6081834098401283,0.18281681283517834,-0.45305302626139576,0.7053634371092901],[-0.5674668755133161,1.0621943701687173,0.37906270912037865,0.7842064273126053,-0.4031488422190535,0.23711574363999094,-0.6319101695865905],[0.46085495267371557,-0.4500624621276671,0.2706541607513362,-0.33986241999499556,-0.20881582170561905,0.7775768618074484,0.8979760988872592]],[[0.11022487261432982,0.6261519925169279,-0.15279334003142328,0.09953833487893629,-0.9683001421252311,-0.052730139670003874,0.7293848379266535,-0.06322866915423388,0.8652394746890646,-0.37386243757475573],[-0.2909364120691793,0.5936084000231514,0.584143348848161,-0.6921159435319981,0.3746852666698956,0.08231867886159548,0.6537186572307145,0.9389679022458668,0.4510285729286785,0.14902540549551158]]],"biases":[[[0.20098163766724508],[0.30691837166125613],[-0.273556222305995],[-0.036841724101221524],[-0.12492406996756376],[0.037338321391696724],[0.9020018030764922],[-0.7449357187179038],[0.3636298038171847],[0.5767647587400073]],[[0.673887841818118],[0.8621897350290115]]]},"time":17633,"isDone":false,"fitness":0.11077763322298508},{"color":"#686de0","width":10,"maxVelocity":2,"visionDistance":50,"brain":{"weights":[[[0.5574359537619793,-0.9270423499018726,-0.6037334405357314,0.8386335637028313,0.03918139399507106,-0.7294654167592907,-0.6833572501208828],[-0.20840091776459857,-0.7563146403163057,0.4879101560559713,-0.34121060412580023,0.25853268613491687,0.4109176563637192,0.7332293904369582],[-0.38539673007156866,0.9065384985820477,-0.6165223200058012,-0.8548323754235166,-0.8060530711016948,0.6525712078768262,-0.4045713330754084],[0.02444451864776974,0.18866501929600465,-0.8934820299340046,0.6117195237530317,-0.05243556638930948,-0.6968674964217797,0.07875184541740948],[0.41857057268871645,-0.7024036795764135,0.6411881468017556,0.9131738243960686,-0.9843741457466056,0.6374798214164088,0.5999857590867858],[0.13023741789729731,0.6059439730186376,0.469797684065935,-0.40507279650124994,-0.09204430394632472,-0.5304501041605004,-0.9623341750932027],[-0.22099284448655734,-0.017301368917756875,-1.0133254404287548,0.25404458777557204,-0.9644275023739921,1.0470714021027363,0.8657580904528128],[-0.8937428262949311,0.03443055807569559,0.7691096769687945,-0.6081834098401283,0.18281681283517834,-0.45305302626139576,0.7053634371092901],[-0.5674668755133161,1.0621943701687173,0.37906270912037865,0.7842064273126053,-0.4031488422190535,0.23711574363999094,-0.6319101695865905],[0.46085495267371557,-0.4500624621276671,0.2706541607513362,-0.33986241999499556,-0.20881582170561905,0.7775768618074484,0.8979760988872592]],[[0.11022487261432982,0.6261519925169279,-0.15279334003142328,0.09953833487893629,-0.9683001421252311,-0.052730139670003874,0.7293848379266535,-0.06322866915423388,0.8652394746890646,-0.37386243757475573],[-0.2909364120691793,0.5936084000231514,0.584143348848161,-0.6921159435319981,0.3746852666698956,0.08231867886159548,0.6537186572307145,0.9389679022458668,0.4510285729286785,0.14902540549551158]]],"biases":[[[0.20098163766724508],[0.30691837166125613],[-0.273556222305995],[-0.036841724101221524],[-0.12492406996756376],[0.037338321391696724],[0.9020018030764922],[-0.7449357187179038],[0.3636298038171847],[0.5767647587400073]],[[0.673887841818118],[0.8621897350290115]]]},"time":17633,"isDone":false,"fitness":0.11077763322298508},{"color":"#686de0","width":10,"maxVelocity":2,"visionDistance":50,"brain":{"weights":[[[0.4964213354696714,0.03154497990763536,-0.5876313513292988,0.8017528070443399,-0.10091009847843638,-0.6542798875967161,-0.45814373892222954],[0.2822213133272632,-0.7693155627108417,0.3526494771192064,-0.5153187233830808,0.27623047662522926,0.46519290167968036,0.7858716994406081],[-0.3151258506891891,-0.615915178069882,-0.6641302029028497,-0.8813406921365472,-0.7048710389098782,-0.08079312521336057,-0.3393429458907449],[0.03623362095679186,0.1307652286295481,-0.9405241539169635,0.5344734892301235,-0.07546795458225605,-0.6430997383475423,0.07830977953620194],[0.3552076817063528,-0.7519524985592487,-0.6397539949401029,0.864091768227781,-0.7630266708747193,0.68454343272718,0.143502196648913],[0.20261047405937804,-0.46703227435650413,0.43155417274912466,-1.0091894043438978,-0.4389013429191975,-0.7303164254335466,0.6812858122822565],[-0.1994323363237252,0.3075101524643878,-1.0421908108282922,0.1652206064710658,-0.21384085018038818,1.06625365460966,0.8429711160989923],[-0.9819121652484843,0.041525283568718825,-0.4922327876927869,-0.7169581782016657,0.7976479801173094,-0.4230023069840352,0.6968579396828477],[-0.5716151263767029,1.0025190188272937,-0.24295609589412312,0.8141883982208413,-0.3932541012674742,0.20699844646283594,-0.5766400084206943],[-1.0730815229007498,0.09768731360481374,0.23199441393932507,-0.13689395735091453,-0.26001301988339975,0.6787389775900455,0.9213274984283947]],[[0.2034512262790215,0.4773510160711747,-0.6181969065478795,-0.06258448348030499,-0.9891490733232317,0.3321091851532457,0.7185338116493176,0.013134498118411733,0.897649775508662,-0.5938710718486073],[-0.769804584841175,0.5862795414116967,0.6872681582366292,-0.940491702625631,0.3325995959172735,0.017763459225918272,0.7094738876951306,0.8524415379119294,0.8400266208205431,-0.1926046123961346]]],"biases":[[[0.0933094366666414],[0.22232731658908533],[-0.3937215311963827],[-0.04028253330924653],[-0.021070243796820175],[-0.0007958306677467719],[0.9561918608250568],[-0.6909947663763925],[0.3282873895027424],[0.5509421843070007]],[[0.6583387533291515],[0.9913511691299847]]]},"time":13400,"isDone":false,"fitness":0.11852861035422343},{"color":"#686de0","width":10,"maxVelocity":2,"visionDistance":50,"brain":{"weights":[[[0.4964213354696714,0.03154497990763536,-0.5876313513292988,0.8017528070443399,-0.10091009847843638,-0.6542798875967161,-0.45814373892222954],[0.2822213133272632,-0.7693155627108417,0.3526494771192064,-0.5153187233830808,0.27623047662522926,0.46519290167968036,0.7858716994406081],[-0.3151258506891891,-0.615915178069882,-0.6641302029028497,-0.8813406921365472,-0.7048710389098782,-0.08079312521336057,-0.3393429458907449],[0.03623362095679186,0.1307652286295481,-0.9405241539169635,0.5344734892301235,-0.07546795458225605,-0.6430997383475423,0.07830977953620194],[0.3552076817063528,-0.7519524985592487,-0.6397539949401029,0.864091768227781,-0.7630266708747193,0.68454343272718,0.143502196648913],[0.20261047405937804,-0.46703227435650413,0.43155417274912466,-1.0091894043438978,-0.4389013429191975,-0.7303164254335466,0.6812858122822565],[-0.1994323363237252,0.3075101524643878,-1.0421908108282922,0.1652206064710658,-0.21384085018038818,1.06625365460966,0.8429711160989923],[-0.9819121652484843,0.041525283568718825,-0.4922327876927869,-0.7169581782016657,0.7976479801173094,-0.4230023069840352,0.6968579396828477],[-0.5716151263767029,1.0025190188272937,-0.24295609589412312,0.8141883982208413,-0.3932541012674742,0.20699844646283594,-0.5766400084206943],[-1.0730815229007498,0.09768731360481374,0.23199441393932507,-0.13689395735091453,-0.26001301988339975,0.6787389775900455,0.9213274984283947]],[[0.2034512262790215,0.4773510160711747,-0.6181969065478795,-0.06258448348030499,-0.9891490733232317,0.3321091851532457,0.7185338116493176,0.013134498118411733,0.897649775508662,-0.5938710718486073],[-0.769804584841175,0.5862795414116967,0.6872681582366292,-0.940491702625631,0.3325995959172735,0.017763459225918272,0.7094738876951306,0.8524415379119294,0.8400266208205431,-0.1926046123961346]]],"biases":[[[0.0933094366666414],[0.22232731658908533],[-0.3937215311963827],[-0.04028253330924653],[-0.021070243796820175],[-0.0007958306677467719],[0.9561918608250568],[-0.6909947663763925],[0.3282873895027424],[0.5509421843070007]],[[0.6583387533291515],[0.9913511691299847]]]},"time":13400,"isDone":false,"fitness":0.11852861035422343},{"color":"#686de0","width":10,"maxVelocity":2,"visionDistance":50,"brain":{"weights":[[[0.4964213354696714,0.03154497990763536,-0.5876313513292988,0.8017528070443399,-0.10091009847843638,-0.6542798875967161,-0.45814373892222954],[0.2822213133272632,-0.7693155627108417,0.3526494771192064,-0.5153187233830808,0.27623047662522926,0.46519290167968036,0.7858716994406081],[-0.3151258506891891,-0.615915178069882,-0.6641302029028497,-0.8813406921365472,-0.7048710389098782,-0.08079312521336057,-0.3393429458907449],[0.03623362095679186,0.1307652286295481,-0.9405241539169635,0.5344734892301235,-0.07546795458225605,-0.6430997383475423,0.07830977953620194],[0.3552076817063528,-0.7519524985592487,-0.6397539949401029,0.864091768227781,-0.7630266708747193,0.68454343272718,0.143502196648913],[0.20261047405937804,-0.46703227435650413,0.43155417274912466,-1.0091894043438978,-0.4389013429191975,-0.7303164254335466,0.6812858122822565],[-0.1994323363237252,0.3075101524643878,-1.0421908108282922,0.1652206064710658,-0.21384085018038818,1.06625365460966,0.8429711160989923],[-0.9819121652484843,0.041525283568718825,-0.4922327876927869,-0.7169581782016657,0.7976479801173094,-0.4230023069840352,0.6968579396828477],[-0.5716151263767029,1.0025190188272937,-0.24295609589412312,0.8141883982208413,-0.3932541012674742,0.20699844646283594,-0.5766400084206943],[-1.0730815229007498,0.09768731360481374,0.23199441393932507,-0.13689395735091453,-0.26001301988339975,0.6787389775900455,0.9213274984283947]],[[0.2034512262790215,0.4773510160711747,-0.6181969065478795,-0.06258448348030499,-0.9891490733232317,0.3321091851532457,0.7185338116493176,0.013134498118411733,0.897649775508662,-0.5938710718486073],[-0.769804584841175,0.5862795414116967,0.6872681582366292,-0.940491702625631,0.3325995959172735,0.017763459225918272,0.7094738876951306,0.8524415379119294,0.8400266208205431,-0.1926046123961346]]],"biases":[[[0.0933094366666414],[0.22232731658908533],[-0.3937215311963827],[-0.04028253330924653],[-0.021070243796820175],[-0.0007958306677467719],[0.9561918608250568],[-0.6909947663763925],[0.3282873895027424],[0.5509421843070007]],[[0.6583387533291515],[0.9913511691299847]]]},"time":13400,"isDone":false,"fitness":0.11852861035422343},{"color":"#686de0","width":10,"maxVelocity":2,"visionDistance":50,"brain":{"weights":[[[0.4862328600368537,0.15960706084916815,-0.20331773104745623,0.46354224573249025,0.5621095626718465,-0.7235866124698963,-0.8574700375370111],[0.24349715845182127,0.2846406108455187,0.5597562654964587,-0.2121172250774971,0.29673791706752406,0.6360426257931816,0.3829045161804206],[-0.3061263154530346,-0.2674873552300455,-0.8660398141278609,-0.8633352001016816,-0.69614442741395,0.5512348837293194,-0.2570844423953631],[0.09124394964781057,0.009807394124006052,-0.9140991059197355,0.4635871588948014,0.1342370221527068,-0.6704836617212891,-0.030817071139227395],[0.4629506333619573,-0.5848412726579096,0.6123377023969225,-0.24124728773705167,-0.9811287725990987,0.6550787484433328,0.5800987988445743],[0.12840663496066512,0.5428246264018634,0.24733546102314263,-0.39259034688236544,-0.10647900134899932,-0.6448155027621446,-0.7671672432349115],[-0.3030435341027253,0.4344216888031199,-0.9247213735229182,0.30076585224880287,-0.8321681987963451,0.22469519526603363,0.7160590045331431],[-0.8205682386646626,-0.11024689210990987,-0.42254783518302935,-0.5474600582928272,0.42345454568422775,-0.41336087722189335,0.7392781751415228],[-0.7142932851137201,0.9551920725543287,0.45079522637314345,0.8280020434323824,-0.44666150840679353,-0.24665031382131097,-0.6690482115997859],[-1.1686368305916106,0.10207086580460367,0.6649376123621167,-0.1617959179916187,-0.05064228056729708,0.8664766720991417,0.8655907236238551]],[[-0.27016206874251797,0.6406845028330758,-0.7566750679009406,-0.8399065915070704,0.7394723947777833,0.3567059603301679,0.7850639490998106,-0.09155658199104631,0.6808208254225036,-0.39916442104931227],[-0.7765728980973438,0.6455093749621373,0.505914490235144,-0.7832044072680008,0.40002994077075293,-0.0036721936957334125,0.6600056858357243,0.9416947455696559,0.5412099472011506,0.0009738927050112131]]],"biases":[[[-0.7728176343273354],[-0.21434541808351104],[0.5481417701571254],[-0.08937509642855893],[-0.5914926983441033],[0.10457697637036784],[0.7974853865497699],[0.32453484104764124],[0.45534027697526935],[-0.013562483861398956]],[[0.8942901659270912],[0.36222960110588415]]]},"time":14166,"isDone":false,"fitness":0.12269773211444597},{"color":"#686de0","width":10,"maxVelocity":2,"visionDistance":50,"brain":{"weights":[[[0.45433830787982005,-0.013862302110409529,-0.18612033309109188,0.8017528070443399,-0.07368620750710439,-0.6756365859066612,-0.6532564400313858],[-0.29882510117055516,-0.7524460707111658,0.33711417479901273,-0.06289784282794957,0.26687123590655176,0.46519290167968036,0.7858716994406081],[-0.27342466854890857,-0.6258483985079575,-0.668144146138375,-0.9370049357046811,-0.8021232425621851,-0.1258590200121883,-0.43640690015790473],[0.053736539392340965,0.128375320333653,-0.9487220047131444,0.5897729448301017,-0.020837950892771726,-0.6394836480693566,0.2628535411738977],[0.2510312967392194,-0.7607164627605022,-0.6812132023870966,-0.125134338837351,-0.7826457862947704,0.7064981571412156,0.1401748196942363],[0.20231035380478607,-0.49423693694338483,0.3928052267844116,-1.0091894043438978,-0.4187757984867353,-0.6023645930039689,-0.9576109849933303],[-0.15594393023673442,0.3397808016298789,-1.0110322529868434,0.1634875643244409,-0.19295348362244558,1.1035914697791853,0.8527469828334173],[-0.9768336868783174,0.013240504808090435,-0.520621177542913,-0.4520347257974587,0.8157478724480106,-0.45545614858640016,0.7264195821691133],[-0.41890011194463916,1.131322642997404,-0.2717455107151041,0.9441388937409121,-0.4299541224912609,0.22947237118418634,-0.7864881888783969],[-1.0607117742496388,0.13445836123285262,0.28657676853538183,-0.13728489718421943,-0.27400218685722333,0.636230313807582,0.9364338281361314]],[[0.19939690923043724,0.3412381212586896,-0.5793647678148552,-0.07574158615475529,0.5860825835231646,0.29084558383615533,0.7497787054054404,-0.057754031982874925,0.23399677465614777,-0.39588064028257575],[-0.762176156130707,0.5451869345895942,0.7245077739637454,-0.9902308002089982,0.310501789454704,-0.059542622139586956,0.7211689867658365,0.801783082503679,0.8173322177934915,0.06394374223697347]]],"biases":[[[0.06667756046644949],[0.24845198163592086],[-0.3740693120773161],[-0.053583958745607965],[0.015032870703251565],[0.019675724686265383],[0.9988444978359456],[-0.7310087456411895],[0.31330607065370225],[0.5155180367776695]],[[0.6132220991963806],[0.977778424255258]]]},"time":14466,"isDone":false,"fitness":0.12757500067144736},{"color":"#686de0","width":10,"maxVelocity":2,"visionDistance":50,"brain":{"weights":[[[0.45037625397385145,0.12153793711012317,-0.0932169224087159,0.7261025596401235,0.7069528291234133,-0.8266643086979454,-0.6380398631601353],[0.25115575310956895,-0.8906043759925086,0.5461141816854583,-0.24141559156361556,-0.33236202138398985,0.2510837158783512,0.5276710041545232],[-0.30306463616897916,-0.4079288098239966,-0.6227662196708044,-0.9419290223721171,-0.7193637514310374,-0.059583099988864754,-0.3799534583795294],[0.12171084966479126,0.053151153373656806,-0.9105869577377093,0.5606434064848741,0.11815515753836568,-0.8121830378706563,0.04559827559797018],[0.5181351504100115,-0.7129554708753669,0.7970052537891251,-0.22005715399973705,-0.7733939829294831,0.7237363439849682,0.12305399932404253],[0.3418044659000833,-0.5173624150462324,0.4279788524684932,-1.0261410718669488,0.07300293958370394,-0.4575582765028921,-1.0025320641320958],[-0.30844369237703645,0.39182730185895537,-1.0692930459266865,0.17785172583347886,-1.009646679816286,1.1360541811482685,0.7903142394701327],[-0.9197447989149771,-0.7554375688225535,-0.5557921227354773,-0.681290496588286,0.4972711515757361,-0.34816494258990693,0.7982399830859152],[-0.6247801576377318,1.0568090494620153,-0.16687577957796162,1.0613010385363806,-0.42781044288328884,0.26502935829517027,-0.4979248347041561],[0.44552989146132294,0.579437093221217,0.22277267045751847,-0.5768192879642416,-0.257036172118887,0.8325018892686745,1.021766934633446]],[[0.05514076896309722,0.63667450656034,-0.14209233424163611,-0.0031390719521359953,0.5682298646734061,0.28378949759014915,0.6679003973409567,-0.0483271426716677,0.8679898040976857,-0.5051708099790063],[-0.7444119995787016,0.4574299322664405,0.5125333666899796,-0.8937822751626141,0.4624562367146779,0.06544282255919835,0.8310243423037241,0.9664914014667996,0.6179511251103084,0.021658432465824523]]],"biases":[[[0.12603607878921863],[0.30202782185810373],[-0.4698813875582194],[-0.020729434015176476],[0.07154287225911704],[0.04011625447561402],[1.007682647221917],[-0.7306954232314632],[0.27854461179873563],[0.38320733416880604]],[[0.6398294956840358],[0.9450253695529252]]]},"time":22366,"isDone":false,"fitness":0.16633076754971712},{"color":"#686de0","width":10,"maxVelocity":2,"visionDistance":50,"brain":{"weights":[[[0.5826777005974892,-0.8175517697161293,0.1203959420469266,0.29577576274841744,0.10950129870565223,-0.6989530897130607,-0.8421398917235827],[0.011203539141340785,0.3341911504365453,0.5192774489490753,-0.3598401151385126,-0.2643679214036526,0.6038446522914269,0.7176125392642824],[-0.09743218767697279,-0.21768921128761382,-0.8462527832975992,-0.8915630015477237,-0.8426434219082619,0.644105620600363,0.7568907276535266],[0.02591746609697845,-0.03581625288819731,-0.8457610017041682,0.42813983071667705,-0.019072784813527657,-0.7945475288696559,0.08188019137297041],[0.467777384073952,-0.7550573919258363,0.5819894116436086,-0.30270581296299814,-0.9533781776964878,0.6519795712091481,0.15612358757495964],[0.2355862735308693,0.6426377937840706,0.26464677622047833,-0.4107104733902939,-0.13664307088546024,-0.566718498995315,-0.7710862255103547],[-0.3015156010480645,0.05171687899311851,-0.9451179851021467,0.22469252365515108,-1.1223622077480753,0.944320481714686,0.9466061602666161],[-0.820038885970774,0.05563152479464307,-0.6224510337462295,-0.5055635726041298,0.44902245549888214,-0.49427409374874115,0.6956935671961013],[-0.20882882688507995,1.0587225319184765,0.39075801268466215,0.9438200221664942,-0.3262761499061437,-0.09994719998477475,0.41669609660200885],[0.5574512814067739,-0.40442147078300844,0.14528357399024072,-0.14458338989979191,-0.058305360694133626,0.9024631905049407,0.9311017696358628]],[[0.2643172578223495,0.7320688223218463,-0.7703599144553057,-0.8072386280651171,0.4476531791811341,0.01788845254340786,0.606879042417254,-0.06253468392709545,0.8120386908217077,-0.5396578424633554],[-0.4391484213900796,0.6650449508836124,0.5657916069632825,-0.5921578967419939,0.2735307391509813,-0.05712789044707839,0.7509015508432759,0.9509067784061427,0.20439170604647716,0.0491603360650835]]],"biases":[[[-0.7194316026449437],[-0.21792826822081707],[0.6031203376084968],[-0.0946130948608196],[-0.642614170085468],[0.07710533913506817],[0.8386601978192221],[0.3323406169766167],[0.49505239668914],[-0.06227777219103883]],[[0.9387039983883946],[0.38445689290269136]]]},"time":25733,"isDone":true,"fitness":0.6800606225469242},{"color":"#686de0","width":10,"maxVelocity":2,"visionDistance":50,"brain":{"weights":[[[0.6080098317753463,-0.8505615724576473,0.07640429058381368,0.33442132359743504,0.07448692606520771,-0.6518546942555987,-0.8424768615897336],[0.23298941800688888,0.36271664534787124,0.4859176115999976,-0.4013039248130974,-0.3955180922019581,0.6038446522914269,0.6894860502747375],[-0.05240645390239476,-0.26739566167171713,-0.6139297670650381,-0.8640301983427288,-0.8221227434498787,0.6911764444090337,0.7568907276535266],[0.04192442352763186,-0.018691117166818462,-0.8930340541935493,0.4221518501679372,0.023772712801847923,-0.8285375714818873,0.047600016006020304],[0.4631318778497364,-0.7204219003583572,0.5469426363125762,-0.29844311045199196,-0.9533781776964878,0.6487022117820324,0.20032947490861475],[0.22394285796613095,0.6430417553553149,0.26464677622047833,-0.3686077818362843,-0.15353437035296755,-0.6988236647434481,-0.800284366376075],[-0.30859737613580623,0.07288290589586068,-0.9941397827747798,0.17643174469225656,-1.1243763351286156,0.9043674263096927,0.9076022164776243],[-0.7916829911382351,0.024012646793257035,-0.5990410694489706,-0.5235679066899416,0.4493503635231847,-0.5145340044553778,0.7079547067068847],[-0.21658313075531022,1.0786684682857286,0.39075801268466215,0.8954903576766201,-0.31584215924760656,-0.06554958331975677,0.3996648083770811],[0.5084095534051248,0.09405119218301652,0.16975655597549802,-0.15021403925795165,-0.058305360694133626,0.9007704396045663,0.6762408017372]],[[0.22523323568300366,0.6846483381133391,-0.790269161803335,-0.7666094070980383,0.45094830007607717,-0.0015445231385643292,0.8395756059839679,-0.04882395316982634,0.803982762596136,-0.5860979081514167],[-0.4159896070766823,0.6527768104370723,0.5621919006664198,-0.5656137232947529,0.27731473824088665,-0.06904234900620039,0.7224509203822032,0.9517978914605871,0.21863658940061953,0.05756144517472063]]],"biases":[[[-0.7194316026449437],[-0.23006352615577275],[0.6134272746921358],[-0.04929241624419975],[-0.6887556112861455],[0.0628013456125405],[0.8198797107862132],[0.3588366996951383],[0.4584241114067163],[-0.09017059811304252]],[[0.9331837657935388],[0.4107812149201196]]]},"time":25433,"isDone":true,"fitness":0.6880824126135336},{"color":"#686de0","width":10,"maxVelocity":2,"visionDistance":50,"brain":{"weights":[[[0.6080098317753463,-0.8505615724576473,0.07640429058381368,0.33442132359743504,0.07448692606520771,-0.6518546942555987,-0.8424768615897336],[0.23298941800688888,0.36271664534787124,0.4859176115999976,-0.4013039248130974,-0.3955180922019581,0.6038446522914269,0.6894860502747375],[-0.05240645390239476,-0.26739566167171713,-0.6139297670650381,-0.8640301983427288,-0.8221227434498787,0.6911764444090337,0.7568907276535266],[0.04192442352763186,-0.018691117166818462,-0.8930340541935493,0.4221518501679372,0.023772712801847923,-0.8285375714818873,0.047600016006020304],[0.4631318778497364,-0.7204219003583572,0.5469426363125762,-0.29844311045199196,-0.9533781776964878,0.6487022117820324,0.20032947490861475],[0.22394285796613095,0.6430417553553149,0.26464677622047833,-0.3686077818362843,-0.15353437035296755,-0.6988236647434481,-0.800284366376075],[-0.30859737613580623,0.07288290589586068,-0.9941397827747798,0.17643174469225656,-1.1243763351286156,0.9043674263096927,0.9076022164776243],[-0.7916829911382351,0.024012646793257035,-0.5990410694489706,-0.5235679066899416,0.4493503635231847,-0.5145340044553778,0.7079547067068847],[-0.21658313075531022,1.0786684682857286,0.39075801268466215,0.8954903576766201,-0.31584215924760656,-0.06554958331975677,0.3996648083770811],[0.5084095534051248,0.09405119218301652,0.16975655597549802,-0.15021403925795165,-0.058305360694133626,0.9007704396045663,0.6762408017372]],[[0.22523323568300366,0.6846483381133391,-0.790269161803335,-0.7666094070980383,0.45094830007607717,-0.0015445231385643292,0.8395756059839679,-0.04882395316982634,0.803982762596136,-0.5860979081514167],[-0.4159896070766823,0.6527768104370723,0.5621919006664198,-0.5656137232947529,0.27731473824088665,-0.06904234900620039,0.7224509203822032,0.9517978914605871,0.21863658940061953,0.05756144517472063]]],"biases":[[[-0.7194316026449437],[-0.23006352615577275],[0.6134272746921358],[-0.04929241624419975],[-0.6887556112861455],[0.0628013456125405],[0.8198797107862132],[0.3588366996951383],[0.4584241114067163],[-0.09017059811304252]],[[0.9331837657935388],[0.4107812149201196]]]},"time":25433,"isDone":true,"fitness":0.6880824126135336},{"color":"#686de0","width":10,"maxVelocity":2,"visionDistance":50,"brain":{"weights":[[[0.5624711885536541,-0.8639650168331852,0.09204180416188845,0.3566959015980318,0.11610723364692745,-0.615108851253761,-0.7960765471263396],[0.2127775640045431,0.3157361027907002,0.4415147874957126,-0.15084891438535777,-0.41080931499029194,0.6161985831931442,0.7399412787381945],[0.012973911525694132,-0.26020275727139525,-0.5831862587094852,-0.8153001664479204,-0.8130790337990454,0.695684257428711,0.8246499839063903],[0.06391498292610409,-0.013064354497729247,-0.8990559943015123,0.36334565162621046,0.01691082038606561,-0.7903148435473382,-0.02610447676469716],[0.4644706749272355,-0.7302893882530122,0.5901132237548665,-0.31342163907334686,-0.9856982160159811,0.679358816008595,0.16363461112193017],[0.243805186092158,0.6307549114418037,0.20006407422625677,-0.37277317828030865,-0.1419758747561266,-0.6977039304217836,-0.7162818677287056],[-0.2788429514102169,0.09812363115758008,-0.9803463929231101,0.14002428602867995,-1.1580495086000653,0.8924717803637584,0.908079663036053],[-0.7916829911382351,0.034513787594048745,-0.5528348172105475,-0.5533994225742873,0.41585188707670606,-0.5068394097853763,0.6774973010005932],[-0.2329052520873508,1.1360342378162427,0.3667418573621333,0.9434270056427687,-0.26919080786685756,-0.07639904099500905,0.3916051919824327],[0.46934530056019363,0.1166186092994527,0.12760561851658328,-0.11785302247337576,-0.02562045153839522,0.9025806063850932,0.6563191244224581]],[[0.1863051512717445,0.7298027662504623,-0.8373582280692022,-0.7324169315335338,0.4985831701815877,-0.032705534194335535,0.8212868111694457,-0.06482817500682092,0.848817991497425,-0.5600061906055461],[-0.4251310866753279,0.6591716689933065,0.6008522373767978,-0.5808411029816594,0.3055277297318696,-0.0645200107282133,0.8058658503639083,0.9160784171411356,0.25677067047057234,0.02373064105901717]]],"biases":[[[-0.7158512980455629],[-0.18874109133553774],[0.5726579884325845],[-0.03730704661181066],[-0.6570413319410905],[0.10641490693918328],[0.8411245911101853],[0.35074530176049346],[0.4922719068070189],[-0.1404482781157938]],[[0.9714221062666468],[0.379193233671567]]]},"time":25400,"isDone":true,"fitness":0.6889763779527559},{"color":"#686de0","width":10,"maxVelocity":2,"visionDistance":50,"brain":{"weights":[[[0.5697458193712792,-0.8366211140530112,0.05449885242916888,0.3397381542560456,0.08653660106002461,-0.615108851253761,-0.8288689612430907],[0.16932822255839383,0.27552414893349136,0.4524288263406092,-0.14265556094026433,-0.4441081973475641,0.6493413217819491,0.4926923922748567],[0.046212468230849055,-0.2780371157130615,-0.772722830845308,-0.8153001664479204,-0.8214860799319522,0.7397059811588719,0.7805336211081629],[0.0931722891843376,-0.03839067382615931,-0.8630223981144894,0.36334565162621046,0.009941378972910211,-0.7909855732064509,-0.07305948843612256],[0.5106526532370184,-0.7241385358586027,0.6101938395356931,-0.26368731154049874,-0.9969283285215758,0.6533105021794419,0.1212344488055854],[0.21233027497034385,0.6862468695564261,0.5244410146423986,-0.3823591331974363,-0.16413383886709054,-0.6916340511222673,-0.7320644758681053],[-0.2602231594639254,0.09123610948205016,-0.9797600062819123,0.16610825224772446,-1.1152702980445235,0.8573531820014679,0.908079663036053],[-0.8129703100760461,0.07125081355600066,-0.5603571071670448,-0.515995118522268,0.45987277242679353,-0.477411236573157,0.6774599342014523],[-0.2682236340038584,1.1591065952724102,0.3489083583597283,1.165487447963877,-0.26919080786685756,-0.059710982421059836,0.35064068045747826],[0.482196081177115,0.11417977158677783,0.10273157156707412,-0.0708727651049052,-0.02594997748397246,0.8861031984552069,0.7034418135344139]],[[0.19863844278406445,0.75990018582233,-0.8168298920955888,-0.7091142366523626,0.5215203820311839,-0.041335438514052615,0.7733126300074544,-0.040850913803654285,0.848817991497425,-0.5705378925233018],[-0.4286433154324905,0.6318699328000141,0.6145809690384695,-0.6113813644175514,0.3525161805206904,-0.016455105077952628,0.8495700953208382,0.8969244370249133,0.2607197208277916,0.06085501201304342]]],"biases":[[[-0.7058620953176004],[-0.20957098490988182],[0.6038819101676494],[-0.07526799751444876],[-0.6136134837242376],[0.140173243114887],[0.8598179921378772],[0.38875650311935694],[0.5060910838450084],[-0.12605392644860355]],[[0.9458845193218011],[0.379193233671567]]]},"time":25233,"isDone":true,"fitness":0.6935362422224864},{"color":"#686de0","width":10,"maxVelocity":2,"visionDistance":50,"brain":{"weights":[[[0.5697458193712792,-0.8366211140530112,0.05449885242916888,0.3397381542560456,0.08653660106002461,-0.615108851253761,-0.8288689612430907],[0.16932822255839383,0.27552414893349136,0.4524288263406092,-0.14265556094026433,-0.4441081973475641,0.6493413217819491,0.4926923922748567],[0.046212468230849055,-0.2780371157130615,-0.772722830845308,-0.8153001664479204,-0.8214860799319522,0.7397059811588719,0.7805336211081629],[0.0931722891843376,-0.03839067382615931,-0.8630223981144894,0.36334565162621046,0.009941378972910211,-0.7909855732064509,-0.07305948843612256],[0.5106526532370184,-0.7241385358586027,0.6101938395356931,-0.26368731154049874,-0.9969283285215758,0.6533105021794419,0.1212344488055854],[0.21233027497034385,0.6862468695564261,0.5244410146423986,-0.3823591331974363,-0.16413383886709054,-0.6916340511222673,-0.7320644758681053],[-0.2602231594639254,0.09123610948205016,-0.9797600062819123,0.16610825224772446,-1.1152702980445235,0.8573531820014679,0.908079663036053],[-0.8129703100760461,0.07125081355600066,-0.5603571071670448,-0.515995118522268,0.45987277242679353,-0.477411236573157,0.6774599342014523],[-0.2682236340038584,1.1591065952724102,0.3489083583597283,1.165487447963877,-0.26919080786685756,-0.059710982421059836,0.35064068045747826],[0.482196081177115,0.11417977158677783,0.10273157156707412,-0.0708727651049052,-0.02594997748397246,0.8861031984552069,0.7034418135344139]],[[0.19863844278406445,0.75990018582233,-0.8168298920955888,-0.7091142366523626,0.5215203820311839,-0.041335438514052615,0.7733126300074544,-0.040850913803654285,0.848817991497425,-0.5705378925233018],[-0.4286433154324905,0.6318699328000141,0.6145809690384695,-0.6113813644175514,0.3525161805206904,-0.016455105077952628,0.8495700953208382,0.8969244370249133,0.2607197208277916,0.06085501201304342]]],"biases":[[[-0.7058620953176004],[-0.20957098490988182],[0.6038819101676494],[-0.07526799751444876],[-0.6136134837242376],[0.140173243114887],[0.8598179921378772],[0.38875650311935694],[0.5060910838450084],[-0.12605392644860355]],[[0.9458845193218011],[0.379193233671567]]]},"time":25233,"isDone":true,"fitness":0.6935362422224864},{"color":"#686de0","width":10,"maxVelocity":2,"visionDistance":50,"brain":{"weights":[[[0.5288135952454875,0.12155661047749358,0.09692598574783558,0.3626144110306973,0.04892795498480908,-0.6785934564521535,-0.7953824351436555],[0.264574876928404,0.25366499476100945,0.7092150987083577,-0.1653933343410445,0.3793473867604448,0.3305568435936157,0.4968435063600178],[0.03980790934884829,-0.42565474887566557,-0.815617715226588,-0.8501609407351115,-0.6226388477484761,0.7776966239424542,0.8046302513433429],[0.114482791833189,0.10961374172085109,-0.8672433421093283,0.507238394042945,-0.041886551393423975,-0.812076269575184,0.1346601714193462],[0.307023451771008,-0.723901192773213,0.8287165197615768,0.21919810404181228,-0.9756527284765828,0.6762075047470301,0.15592834615318069],[0.26662091424870726,0.7428522418274209,0.5495374804011997,-0.36469932521777126,0.12676883808822995,-0.7125268193488992,-0.8191344081976422],[-0.2983974217729432,0.021790354389731988,-1.1097660905210327,0.26218841648966296,-1.0877080814684816,0.8360213448048311,0.868112707294753],[-0.8714240266478094,0.01095828562524553,-0.3619990917980621,-0.530412249050759,0.39880620260839894,-0.2935733538483851,0.7406750774268693],[-0.6639751343680627,1.1164089064461988,-0.27335798440670844,1.0823367238015698,-0.35350560879923176,0.19645863435428473,-0.737710697025197],[0.551627516656258,0.5024350755488196,0.08847061749299451,-0.636574037438041,-0.3198487507177741,0.8832922657474928,0.696368613669011]],[[0.26573841610554283,0.6702920361119955,-0.8440086622894999,-1.0635044989209907,0.6175347052142132,0.00943909807423187,0.7327197248186105,-0.049307233971487924,0.574170879961239,-0.3921511117304045],[-0.8495262094878889,0.5736297840792371,0.7008209367833893,-0.5507630616003251,0.3052174901085877,0.045026591968785765,0.8542884519991711,0.9452736696189605,0.48369587821178367,0.1774316643780306]]],"biases":[[[-0.6877289588779599],[-0.2774157055625514],[0.5886229040857898],[-0.01647425634713412],[-0.7239865941743796],[-0.030710645218240597],[0.9108135353846143],[0.4515401217898756],[0.4375654322171123],[-0.03672368891752063]],[[0.8635428643373643],[0.3619232363378172]]]},"time":25000,"isDone":true,"fitness":0.7},{"color":"#686de0","width":10,"maxVelocity":2,"visionDistance":50,"brain":{"weights":[[[0.5288135952454875,0.12155661047749358,0.09692598574783558,0.3626144110306973,0.04892795498480908,-0.6785934564521535,-0.7953824351436555],[0.264574876928404,0.25366499476100945,0.7092150987083577,-0.1653933343410445,0.3793473867604448,0.3305568435936157,0.4968435063600178],[0.03980790934884829,-0.42565474887566557,-0.815617715226588,-0.8501609407351115,-0.6226388477484761,0.7776966239424542,0.8046302513433429],[0.114482791833189,0.10961374172085109,-0.8672433421093283,0.507238394042945,-0.041886551393423975,-0.812076269575184,0.1346601714193462],[0.307023451771008,-0.723901192773213,0.8287165197615768,0.21919810404181228,-0.9756527284765828,0.6762075047470301,0.15592834615318069],[0.26662091424870726,0.7428522418274209,0.5495374804011997,-0.36469932521777126,0.12676883808822995,-0.7125268193488992,-0.8191344081976422],[-0.2983974217729432,0.021790354389731988,-1.1097660905210327,0.26218841648966296,-1.0877080814684816,0.8360213448048311,0.868112707294753],[-0.8714240266478094,0.01095828562524553,-0.3619990917980621,-0.530412249050759,0.39880620260839894,-0.2935733538483851,0.7406750774268693],[-0.6639751343680627,1.1164089064461988,-0.27335798440670844,1.0823367238015698,-0.35350560879923176,0.19645863435428473,-0.737710697025197],[0.551627516656258,0.5024350755488196,0.08847061749299451,-0.636574037438041,-0.3198487507177741,0.8832922657474928,0.696368613669011]],[[0.26573841610554283,0.6702920361119955,-0.8440086622894999,-1.0635044989209907,0.6175347052142132,0.00943909807423187,0.7327197248186105,-0.049307233971487924,0.574170879961239,-0.3921511117304045],[-0.8495262094878889,0.5736297840792371,0.7008209367833893,-0.5507630616003251,0.3052174901085877,0.045026591968785765,0.8542884519991711,0.9452736696189605,0.48369587821178367,0.1774316643780306]]],"biases":[[[-0.6877289588779599],[-0.2774157055625514],[0.5886229040857898],[-0.01647425634713412],[-0.7239865941743796],[-0.030710645218240597],[0.9108135353846143],[0.4515401217898756],[0.4375654322171123],[-0.03672368891752063]],[[0.8635428643373643],[0.3619232363378172]]]},"time":25000,"isDone":true,"fitness":0.7},{"color":"#686de0","width":10,"maxVelocity":2,"visionDistance":50,"brain":{"weights":[[[0.5288135952454875,0.12155661047749358,0.09692598574783558,0.3626144110306973,0.04892795498480908,-0.6785934564521535,-0.7953824351436555],[0.264574876928404,0.25366499476100945,0.7092150987083577,-0.1653933343410445,0.3793473867604448,0.3305568435936157,0.4968435063600178],[0.03980790934884829,-0.42565474887566557,-0.815617715226588,-0.8501609407351115,-0.6226388477484761,0.7776966239424542,0.8046302513433429],[0.114482791833189,0.10961374172085109,-0.8672433421093283,0.507238394042945,-0.041886551393423975,-0.812076269575184,0.1346601714193462],[0.307023451771008,-0.723901192773213,0.8287165197615768,0.21919810404181228,-0.9756527284765828,0.6762075047470301,0.15592834615318069],[0.26662091424870726,0.7428522418274209,0.5495374804011997,-0.36469932521777126,0.12676883808822995,-0.7125268193488992,-0.8191344081976422],[-0.2983974217729432,0.021790354389731988,-1.1097660905210327,0.26218841648966296,-1.0877080814684816,0.8360213448048311,0.868112707294753],[-0.8714240266478094,0.01095828562524553,-0.3619990917980621,-0.530412249050759,0.39880620260839894,-0.2935733538483851,0.7406750774268693],[-0.6639751343680627,1.1164089064461988,-0.27335798440670844,1.0823367238015698,-0.35350560879923176,0.19645863435428473,-0.737710697025197],[0.551627516656258,0.5024350755488196,0.08847061749299451,-0.636574037438041,-0.3198487507177741,0.8832922657474928,0.696368613669011]],[[0.26573841610554283,0.6702920361119955,-0.8440086622894999,-1.0635044989209907,0.6175347052142132,0.00943909807423187,0.7327197248186105,-0.049307233971487924,0.574170879961239,-0.3921511117304045],[-0.8495262094878889,0.5736297840792371,0.7008209367833893,-0.5507630616003251,0.3052174901085877,0.045026591968785765,0.8542884519991711,0.9452736696189605,0.48369587821178367,0.1774316643780306]]],"biases":[[[-0.6877289588779599],[-0.2774157055625514],[0.5886229040857898],[-0.01647425634713412],[-0.7239865941743796],[-0.030710645218240597],[0.9108135353846143],[0.4515401217898756],[0.4375654322171123],[-0.03672368891752063]],[[0.8635428643373643],[0.3619232363378172]]]},"time":25000,"isDone":true,"fitness":0.7},{"color":"#686de0","width":10,"maxVelocity":2,"visionDistance":50,"brain":{"weights":[[[0.5288135952454875,0.12155661047749358,0.09692598574783558,0.3626144110306973,0.04892795498480908,-0.6785934564521535,-0.7953824351436555],[0.264574876928404,0.25366499476100945,0.7092150987083577,-0.1653933343410445,0.3793473867604448,0.3305568435936157,0.4968435063600178],[0.03980790934884829,-0.42565474887566557,-0.815617715226588,-0.8501609407351115,-0.6226388477484761,0.7776966239424542,0.8046302513433429],[0.114482791833189,0.10961374172085109,-0.8672433421093283,0.507238394042945,-0.041886551393423975,-0.812076269575184,0.1346601714193462],[0.307023451771008,-0.723901192773213,0.8287165197615768,0.21919810404181228,-0.9756527284765828,0.6762075047470301,0.15592834615318069],[0.26662091424870726,0.7428522418274209,0.5495374804011997,-0.36469932521777126,0.12676883808822995,-0.7125268193488992,-0.8191344081976422],[-0.2983974217729432,0.021790354389731988,-1.1097660905210327,0.26218841648966296,-1.0877080814684816,0.8360213448048311,0.868112707294753],[-0.8714240266478094,0.01095828562524553,-0.3619990917980621,-0.530412249050759,0.39880620260839894,-0.2935733538483851,0.7406750774268693],[-0.6639751343680627,1.1164089064461988,-0.27335798440670844,1.0823367238015698,-0.35350560879923176,0.19645863435428473,-0.737710697025197],[0.551627516656258,0.5024350755488196,0.08847061749299451,-0.636574037438041,-0.3198487507177741,0.8832922657474928,0.696368613669011]],[[0.26573841610554283,0.6702920361119955,-0.8440086622894999,-1.0635044989209907,0.6175347052142132,0.00943909807423187,0.7327197248186105,-0.049307233971487924,0.574170879961239,-0.3921511117304045],[-0.8495262094878889,0.5736297840792371,0.7008209367833893,-0.5507630616003251,0.3052174901085877,0.045026591968785765,0.8542884519991711,0.9452736696189605,0.48369587821178367,0.1774316643780306]]],"biases":[[[-0.6877289588779599],[-0.2774157055625514],[0.5886229040857898],[-0.01647425634713412],[-0.7239865941743796],[-0.030710645218240597],[0.9108135353846143],[0.4515401217898756],[0.4375654322171123],[-0.03672368891752063]],[[0.8635428643373643],[0.3619232363378172]]]},"time":25000,"isDone":true,"fitness":0.7},{"color":"#686de0","width":10,"maxVelocity":2,"visionDistance":50,"brain":{"weights":[[[0.3450581168633402,-0.2657037498721419,0.27418486658386193,0.6645075489517959,0.07865462238794974,-0.9859647573219416,-0.6530859977856605],[-0.1625493187883384,-0.9484164155055224,0.7210697558159268,-0.1914644543981761,0.3632420233585919,0.3073428353120534,0.7802683597954525],[-0.07828205456282746,-0.4390466653194033,-0.727808981844413,-0.8870897114798921,-0.7630682354429404,-0.07202267271892376,-0.1579776426984488],[-0.13939662793387117,-0.08145055220909199,-0.8330600417097219,0.5198921021074621,-0.05972490880031762,-0.7095180529990273,-0.015377357558319552],[0.2201892388510466,0.45179701659575705,0.8302981789025767,0.14883987879328187,-0.8750471527233472,0.8582369794708217,1.0045083331465736],[0.14005849743158905,0.6744078001176133,0.4125528286720179,-0.6028380740378799,0.09472590224301419,-0.6275168096475721,-0.9726659795753912],[-0.1806248479440673,-0.049250061499852935,-1.2537397282448126,0.32993530747166344,-1.1099006131649873,1.0100929527518259,0.8638823234321674],[-0.902100800382227,-0.897396604836451,-0.6009372788540139,-0.42506885532319844,0.791372657047001,-0.4904667523297672,0.686910984742748],[-0.5795284701137958,0.983655037544549,-0.22804199367920716,1.1152227077014105,-0.47636849854254526,0.18720801754939953,-0.651644875709261],[0.5842883134228594,0.5298250597136149,0.25551664586626127,-0.695076502908081,-0.3065159164027499,0.9250043395017922,0.7458758101674524]],[[0.2035845707097633,0.6916042763685977,-0.9506081191791897,-1.1085396469556579,0.05965493730240329,0.38383150276774813,0.7883035342486274,-0.015863053577407332,0.7505848792978875,-0.3501433924703945],[-0.9390996653758892,0.7189041304310179,0.551716388617459,-0.4194099196873283,0.3899962111357923,0.08636231309423391,0.9322110814772527,0.9123427576047688,0.5773576069863513,0.16111701816303287]]],"biases":[[[-0.6649838103959287],[-0.11860232857093284],[0.5560706738261195],[-0.036769095828120116],[-0.4802061474379173],[0.09442031785751417],[0.7549730297980234],[0.3069765416579103],[0.32375859634772763],[-0.11965375695761946]],[[0.9768282647348644],[0.46514260655682654]]]},"time":24966,"isDone":true,"fitness":0.7009532964832171},{"color":"#686de0","width":10,"maxVelocity":2,"visionDistance":50,"brain":{"weights":[[[0.3450581168633402,-0.2657037498721419,0.27418486658386193,0.6645075489517959,0.07865462238794974,-0.9859647573219416,-0.6530859977856605],[-0.1625493187883384,-0.9484164155055224,0.7210697558159268,-0.1914644543981761,0.3632420233585919,0.3073428353120534,0.7802683597954525],[-0.07828205456282746,-0.4390466653194033,-0.727808981844413,-0.8870897114798921,-0.7630682354429404,-0.07202267271892376,-0.1579776426984488],[-0.13939662793387117,-0.08145055220909199,-0.8330600417097219,0.5198921021074621,-0.05972490880031762,-0.7095180529990273,-0.015377357558319552],[0.2201892388510466,0.45179701659575705,0.8302981789025767,0.14883987879328187,-0.8750471527233472,0.8582369794708217,1.0045083331465736],[0.14005849743158905,0.6744078001176133,0.4125528286720179,-0.6028380740378799,0.09472590224301419,-0.6275168096475721,-0.9726659795753912],[-0.1806248479440673,-0.049250061499852935,-1.2537397282448126,0.32993530747166344,-1.1099006131649873,1.0100929527518259,0.8638823234321674],[-0.902100800382227,-0.897396604836451,-0.6009372788540139,-0.42506885532319844,0.791372657047001,-0.4904667523297672,0.686910984742748],[-0.5795284701137958,0.983655037544549,-0.22804199367920716,1.1152227077014105,-0.47636849854254526,0.18720801754939953,-0.651644875709261],[0.5842883134228594,0.5298250597136149,0.25551664586626127,-0.695076502908081,-0.3065159164027499,0.9250043395017922,0.7458758101674524]],[[0.2035845707097633,0.6916042763685977,-0.9506081191791897,-1.1085396469556579,0.05965493730240329,0.38383150276774813,0.7883035342486274,-0.015863053577407332,0.7505848792978875,-0.3501433924703945],[-0.9390996653758892,0.7189041304310179,0.551716388617459,-0.4194099196873283,0.3899962111357923,0.08636231309423391,0.9322110814772527,0.9123427576047688,0.5773576069863513,0.16111701816303287]]],"biases":[[[-0.6649838103959287],[-0.11860232857093284],[0.5560706738261195],[-0.036769095828120116],[-0.4802061474379173],[0.09442031785751417],[0.7549730297980234],[0.3069765416579103],[0.32375859634772763],[-0.11965375695761946]],[[0.9768282647348644],[0.46514260655682654]]]},"time":24966,"isDone":true,"fitness":0.7009532964832171},{"color":"#686de0","width":10,"maxVelocity":2,"visionDistance":50,"brain":{"weights":[[[0.3450581168633402,-0.2657037498721419,0.27418486658386193,0.6645075489517959,0.07865462238794974,-0.9859647573219416,-0.6530859977856605],[-0.1625493187883384,-0.9484164155055224,0.7210697558159268,-0.1914644543981761,0.3632420233585919,0.3073428353120534,0.7802683597954525],[-0.07828205456282746,-0.4390466653194033,-0.727808981844413,-0.8870897114798921,-0.7630682354429404,-0.07202267271892376,-0.1579776426984488],[-0.13939662793387117,-0.08145055220909199,-0.8330600417097219,0.5198921021074621,-0.05972490880031762,-0.7095180529990273,-0.015377357558319552],[0.2201892388510466,0.45179701659575705,0.8302981789025767,0.14883987879328187,-0.8750471527233472,0.8582369794708217,1.0045083331465736],[0.14005849743158905,0.6744078001176133,0.4125528286720179,-0.6028380740378799,0.09472590224301419,-0.6275168096475721,-0.9726659795753912],[-0.1806248479440673,-0.049250061499852935,-1.2537397282448126,0.32993530747166344,-1.1099006131649873,1.0100929527518259,0.8638823234321674],[-0.902100800382227,-0.897396604836451,-0.6009372788540139,-0.42506885532319844,0.791372657047001,-0.4904667523297672,0.686910984742748],[-0.5795284701137958,0.983655037544549,-0.22804199367920716,1.1152227077014105,-0.47636849854254526,0.18720801754939953,-0.651644875709261],[0.5842883134228594,0.5298250597136149,0.25551664586626127,-0.695076502908081,-0.3065159164027499,0.9250043395017922,0.7458758101674524]],[[0.2035845707097633,0.6916042763685977,-0.9506081191791897,-1.1085396469556579,0.05965493730240329,0.38383150276774813,0.7883035342486274,-0.015863053577407332,0.7505848792978875,-0.3501433924703945],[-0.9390996653758892,0.7189041304310179,0.551716388617459,-0.4194099196873283,0.3899962111357923,0.08636231309423391,0.9322110814772527,0.9123427576047688,0.5773576069863513,0.16111701816303287]]],"biases":[[[-0.6649838103959287],[-0.11860232857093284],[0.5560706738261195],[-0.036769095828120116],[-0.4802061474379173],[0.09442031785751417],[0.7549730297980234],[0.3069765416579103],[0.32375859634772763],[-0.11965375695761946]],[[0.9768282647348644],[0.46514260655682654]]]},"time":24966,"isDone":true,"fitness":0.7009532964832171},{"color":"#686de0","width":10,"maxVelocity":2,"visionDistance":50,"brain":{"weights":[[[0.3450581168633402,-0.2657037498721419,0.27418486658386193,0.6645075489517959,0.07865462238794974,-0.9859647573219416,-0.6530859977856605],[-0.1625493187883384,-0.9484164155055224,0.7210697558159268,-0.1914644543981761,0.3632420233585919,0.3073428353120534,0.7802683597954525],[-0.07828205456282746,-0.4390466653194033,-0.727808981844413,-0.8870897114798921,-0.7630682354429404,-0.07202267271892376,-0.1579776426984488],[-0.13939662793387117,-0.08145055220909199,-0.8330600417097219,0.5198921021074621,-0.05972490880031762,-0.7095180529990273,-0.015377357558319552],[0.2201892388510466,0.45179701659575705,0.8302981789025767,0.14883987879328187,-0.8750471527233472,0.8582369794708217,1.0045083331465736],[0.14005849743158905,0.6744078001176133,0.4125528286720179,-0.6028380740378799,0.09472590224301419,-0.6275168096475721,-0.9726659795753912],[-0.1806248479440673,-0.049250061499852935,-1.2537397282448126,0.32993530747166344,-1.1099006131649873,1.0100929527518259,0.8638823234321674],[-0.902100800382227,-0.897396604836451,-0.6009372788540139,-0.42506885532319844,0.791372657047001,-0.4904667523297672,0.686910984742748],[-0.5795284701137958,0.983655037544549,-0.22804199367920716,1.1152227077014105,-0.47636849854254526,0.18720801754939953,-0.651644875709261],[0.5842883134228594,0.5298250597136149,0.25551664586626127,-0.695076502908081,-0.3065159164027499,0.9250043395017922,0.7458758101674524]],[[0.2035845707097633,0.6916042763685977,-0.9506081191791897,-1.1085396469556579,0.05965493730240329,0.38383150276774813,0.7883035342486274,-0.015863053577407332,0.7505848792978875,-0.3501433924703945],[-0.9390996653758892,0.7189041304310179,0.551716388617459,-0.4194099196873283,0.3899962111357923,0.08636231309423391,0.9322110814772527,0.9123427576047688,0.5773576069863513,0.16111701816303287]]],"biases":[[[-0.6649838103959287],[-0.11860232857093284],[0.5560706738261195],[-0.036769095828120116],[-0.4802061474379173],[0.09442031785751417],[0.7549730297980234],[0.3069765416579103],[0.32375859634772763],[-0.11965375695761946]],[[0.9768282647348644],[0.46514260655682654]]]},"time":24966,"isDone":true,"fitness":0.7009532964832171},{"color":"#686de0","width":10,"maxVelocity":2,"visionDistance":50,"brain":{"weights":[[[0.3450581168633402,-0.2657037498721419,0.27418486658386193,0.6645075489517959,0.07865462238794974,-0.9859647573219416,-0.6530859977856605],[-0.1625493187883384,-0.9484164155055224,0.7210697558159268,-0.1914644543981761,0.3632420233585919,0.3073428353120534,0.7802683597954525],[-0.07828205456282746,-0.4390466653194033,-0.727808981844413,-0.8870897114798921,-0.7630682354429404,-0.07202267271892376,-0.1579776426984488],[-0.13939662793387117,-0.08145055220909199,-0.8330600417097219,0.5198921021074621,-0.05972490880031762,-0.7095180529990273,-0.015377357558319552],[0.2201892388510466,0.45179701659575705,0.8302981789025767,0.14883987879328187,-0.8750471527233472,0.8582369794708217,1.0045083331465736],[0.14005849743158905,0.6744078001176133,0.4125528286720179,-0.6028380740378799,0.09472590224301419,-0.6275168096475721,-0.9726659795753912],[-0.1806248479440673,-0.049250061499852935,-1.2537397282448126,0.32993530747166344,-1.1099006131649873,1.0100929527518259,0.8638823234321674],[-0.902100800382227,-0.897396604836451,-0.6009372788540139,-0.42506885532319844,0.791372657047001,-0.4904667523297672,0.686910984742748],[-0.5795284701137958,0.983655037544549,-0.22804199367920716,1.1152227077014105,-0.47636849854254526,0.18720801754939953,-0.651644875709261],[0.5842883134228594,0.5298250597136149,0.25551664586626127,-0.695076502908081,-0.3065159164027499,0.9250043395017922,0.7458758101674524]],[[0.2035845707097633,0.6916042763685977,-0.9506081191791897,-1.1085396469556579,0.05965493730240329,0.38383150276774813,0.7883035342486274,-0.015863053577407332,0.7505848792978875,-0.3501433924703945],[-0.9390996653758892,0.7189041304310179,0.551716388617459,-0.4194099196873283,0.3899962111357923,0.08636231309423391,0.9322110814772527,0.9123427576047688,0.5773576069863513,0.16111701816303287]]],"biases":[[[-0.6649838103959287],[-0.11860232857093284],[0.5560706738261195],[-0.036769095828120116],[-0.4802061474379173],[0.09442031785751417],[0.7549730297980234],[0.3069765416579103],[0.32375859634772763],[-0.11965375695761946]],[[0.9768282647348644],[0.46514260655682654]]]},"time":24966,"isDone":true,"fitness":0.7009532964832171},{"color":"#686de0","width":10,"maxVelocity":2,"visionDistance":50,"brain":{"weights":[[[0.36395129348357214,-0.26380804872114955,0.19560037812585135,0.7115823610248917,0.03955031064175469,-0.8801012710767676,-0.6152002023723798],[0.381753135235307,-0.8387435940713528,0.644104294770822,-0.14117784606863287,0.39317224780940435,0.2469723909835263,0.5274593214100269],[-0.17655273646514338,-0.3870363872211408,-0.8323645191480197,-0.8588283536507905,-0.5062770771601937,0.7116602655182966,-0.2955934899956724],[0.2133561073825379,0.10374244788757915,-1.000958666818024,0.47053805405067384,-0.07203911987132135,-0.7582920722698129,-0.05926329173997654],[0.8063411422687442,0.5267793098881504,0.5070018557866556,-0.34676907227910747,-0.9847214405172668,0.5379317839970603,0.9940536841964609],[0.18109959886961427,0.7094851311175727,0.28981430565402,-0.4855041889888446,-0.22786135007722225,-0.633353779816909,-0.7083386545618816],[-0.17746921817129688,-0.04090110403618028,-1.3023340431177657,0.06973921629623624,-1.0784984142246186,0.9933584827364098,1.0461227286957948],[-0.9479777805958494,-0.05042014299619964,-0.6526856740542609,-0.41378281636528613,0.8358915954961642,-0.1706022960608416,0.702329719536047],[-0.5886136142295011,0.9167834883277085,-0.3655362799487546,1.2305769157984763,-0.37685151327665417,0.0819645032462143,-0.7431673249176024],[0.45041354406097384,0.5044838542891429,0.33964142121047675,-0.755463453721728,-0.31881342870016244,0.8844936765393723,0.8171893476178054]],[[-0.19307345910803797,0.6974383331871059,-0.9881935215906741,-0.708185385717845,0.5410574358791536,0.37916748487891927,0.6788756112902108,0.07130959731185589,0.9166855982475586,-0.41803013699284636],[-0.8700651712357461,0.6363400367886884,0.665355996082357,-0.8621003606442732,0.24243059112700444,0.11254673238586972,0.9720596774091254,0.8782104310637311,0.6252277137678561,0.3119047917527788]]],"biases":[[[-0.6646485261082156],[-0.26850439043782875],[0.6233682297055224],[-0.039510647464839635],[-0.5710721667417311],[-0.04160746463238935],[0.9397565275523996],[0.2977781100897653],[0.34733929040955597],[0.09119085339594588]],[[0.9507050365092217],[0.40427399290995275]]]},"time":24600,"isDone":true,"fitness":0.7113821138211383},{"color":"#686de0","width":10,"maxVelocity":2,"visionDistance":50,"brain":{"weights":[[[0.36395129348357214,-0.26380804872114955,0.19560037812585135,0.7115823610248917,0.03955031064175469,-0.8801012710767676,-0.6152002023723798],[0.381753135235307,-0.8387435940713528,0.644104294770822,-0.14117784606863287,0.39317224780940435,0.2469723909835263,0.5274593214100269],[-0.17655273646514338,-0.3870363872211408,-0.8323645191480197,-0.8588283536507905,-0.5062770771601937,0.7116602655182966,-0.2955934899956724],[0.2133561073825379,0.10374244788757915,-1.000958666818024,0.47053805405067384,-0.07203911987132135,-0.7582920722698129,-0.05926329173997654],[0.8063411422687442,0.5267793098881504,0.5070018557866556,-0.34676907227910747,-0.9847214405172668,0.5379317839970603,0.9940536841964609],[0.18109959886961427,0.7094851311175727,0.28981430565402,-0.4855041889888446,-0.22786135007722225,-0.633353779816909,-0.7083386545618816],[-0.17746921817129688,-0.04090110403618028,-1.3023340431177657,0.06973921629623624,-1.0784984142246186,0.9933584827364098,1.0461227286957948],[-0.9479777805958494,-0.05042014299619964,-0.6526856740542609,-0.41378281636528613,0.8358915954961642,-0.1706022960608416,0.702329719536047],[-0.5886136142295011,0.9167834883277085,-0.3655362799487546,1.2305769157984763,-0.37685151327665417,0.0819645032462143,-0.7431673249176024],[0.45041354406097384,0.5044838542891429,0.33964142121047675,-0.755463453721728,-0.31881342870016244,0.8844936765393723,0.8171893476178054]],[[-0.19307345910803797,0.6974383331871059,-0.9881935215906741,-0.708185385717845,0.5410574358791536,0.37916748487891927,0.6788756112902108,0.07130959731185589,0.9166855982475586,-0.41803013699284636],[-0.8700651712357461,0.6363400367886884,0.665355996082357,-0.8621003606442732,0.24243059112700444,0.11254673238586972,0.9720596774091254,0.8782104310637311,0.6252277137678561,0.3119047917527788]]],"biases":[[[-0.6646485261082156],[-0.26850439043782875],[0.6233682297055224],[-0.039510647464839635],[-0.5710721667417311],[-0.04160746463238935],[0.9397565275523996],[0.2977781100897653],[0.34733929040955597],[0.09119085339594588]],[[0.9507050365092217],[0.40427399290995275]]]},"time":24600,"isDone":true,"fitness":0.7113821138211383},{"color":"#686de0","width":10,"maxVelocity":2,"visionDistance":50,"brain":{"weights":[[[0.36395129348357214,-0.26380804872114955,0.19560037812585135,0.7115823610248917,0.03955031064175469,-0.8801012710767676,-0.6152002023723798],[0.381753135235307,-0.8387435940713528,0.644104294770822,-0.14117784606863287,0.39317224780940435,0.2469723909835263,0.5274593214100269],[-0.17655273646514338,-0.3870363872211408,-0.8323645191480197,-0.8588283536507905,-0.5062770771601937,0.7116602655182966,-0.2955934899956724],[0.2133561073825379,0.10374244788757915,-1.000958666818024,0.47053805405067384,-0.07203911987132135,-0.7582920722698129,-0.05926329173997654],[0.8063411422687442,0.5267793098881504,0.5070018557866556,-0.34676907227910747,-0.9847214405172668,0.5379317839970603,0.9940536841964609],[0.18109959886961427,0.7094851311175727,0.28981430565402,-0.4855041889888446,-0.22786135007722225,-0.633353779816909,-0.7083386545618816],[-0.17746921817129688,-0.04090110403618028,-1.3023340431177657,0.06973921629623624,-1.0784984142246186,0.9933584827364098,1.0461227286957948],[-0.9479777805958494,-0.05042014299619964,-0.6526856740542609,-0.41378281636528613,0.8358915954961642,-0.1706022960608416,0.702329719536047],[-0.5886136142295011,0.9167834883277085,-0.3655362799487546,1.2305769157984763,-0.37685151327665417,0.0819645032462143,-0.7431673249176024],[0.45041354406097384,0.5044838542891429,0.33964142121047675,-0.755463453721728,-0.31881342870016244,0.8844936765393723,0.8171893476178054]],[[-0.19307345910803797,0.6974383331871059,-0.9881935215906741,-0.708185385717845,0.5410574358791536,0.37916748487891927,0.6788756112902108,0.07130959731185589,0.9166855982475586,-0.41803013699284636],[-0.8700651712357461,0.6363400367886884,0.665355996082357,-0.8621003606442732,0.24243059112700444,0.11254673238586972,0.9720596774091254,0.8782104310637311,0.6252277137678561,0.3119047917527788]]],"biases":[[[-0.6646485261082156],[-0.26850439043782875],[0.6233682297055224],[-0.039510647464839635],[-0.5710721667417311],[-0.04160746463238935],[0.9397565275523996],[0.2977781100897653],[0.34733929040955597],[0.09119085339594588]],[[0.9507050365092217],[0.40427399290995275]]]},"time":24600,"isDone":true,"fitness":0.7113821138211383},{"color":"#686de0","width":10,"maxVelocity":2,"visionDistance":50,"brain":{"weights":[[[0.36395129348357214,-0.26380804872114955,0.19560037812585135,0.7115823610248917,0.03955031064175469,-0.8801012710767676,-0.6152002023723798],[0.381753135235307,-0.8387435940713528,0.644104294770822,-0.14117784606863287,0.39317224780940435,0.2469723909835263,0.5274593214100269],[-0.17655273646514338,-0.3870363872211408,-0.8323645191480197,-0.8588283536507905,-0.5062770771601937,0.7116602655182966,-0.2955934899956724],[0.2133561073825379,0.10374244788757915,-1.000958666818024,0.47053805405067384,-0.07203911987132135,-0.7582920722698129,-0.05926329173997654],[0.8063411422687442,0.5267793098881504,0.5070018557866556,-0.34676907227910747,-0.9847214405172668,0.5379317839970603,0.9940536841964609],[0.18109959886961427,0.7094851311175727,0.28981430565402,-0.4855041889888446,-0.22786135007722225,-0.633353779816909,-0.7083386545618816],[-0.17746921817129688,-0.04090110403618028,-1.3023340431177657,0.06973921629623624,-1.0784984142246186,0.9933584827364098,1.0461227286957948],[-0.9479777805958494,-0.05042014299619964,-0.6526856740542609,-0.41378281636528613,0.8358915954961642,-0.1706022960608416,0.702329719536047],[-0.5886136142295011,0.9167834883277085,-0.3655362799487546,1.2305769157984763,-0.37685151327665417,0.0819645032462143,-0.7431673249176024],[0.45041354406097384,0.5044838542891429,0.33964142121047675,-0.755463453721728,-0.31881342870016244,0.8844936765393723,0.8171893476178054]],[[-0.19307345910803797,0.6974383331871059,-0.9881935215906741,-0.708185385717845,0.5410574358791536,0.37916748487891927,0.6788756112902108,0.07130959731185589,0.9166855982475586,-0.41803013699284636],[-0.8700651712357461,0.6363400367886884,0.665355996082357,-0.8621003606442732,0.24243059112700444,0.11254673238586972,0.9720596774091254,0.8782104310637311,0.6252277137678561,0.3119047917527788]]],"biases":[[[-0.6646485261082156],[-0.26850439043782875],[0.6233682297055224],[-0.039510647464839635],[-0.5710721667417311],[-0.04160746463238935],[0.9397565275523996],[0.2977781100897653],[0.34733929040955597],[0.09119085339594588]],[[0.9507050365092217],[0.40427399290995275]]]},"time":24600,"isDone":true,"fitness":0.7113821138211383},{"color":"#686de0","width":10,"maxVelocity":2,"visionDistance":50,"brain":{"weights":[[[0.36395129348357214,-0.26380804872114955,0.19560037812585135,0.7115823610248917,0.03955031064175469,-0.8801012710767676,-0.6152002023723798],[0.381753135235307,-0.8387435940713528,0.644104294770822,-0.14117784606863287,0.39317224780940435,0.2469723909835263,0.5274593214100269],[-0.17655273646514338,-0.3870363872211408,-0.8323645191480197,-0.8588283536507905,-0.5062770771601937,0.7116602655182966,-0.2955934899956724],[0.2133561073825379,0.10374244788757915,-1.000958666818024,0.47053805405067384,-0.07203911987132135,-0.7582920722698129,-0.05926329173997654],[0.8063411422687442,0.5267793098881504,0.5070018557866556,-0.34676907227910747,-0.9847214405172668,0.5379317839970603,0.9940536841964609],[0.18109959886961427,0.7094851311175727,0.28981430565402,-0.4855041889888446,-0.22786135007722225,-0.633353779816909,-0.7083386545618816],[-0.17746921817129688,-0.04090110403618028,-1.3023340431177657,0.06973921629623624,-1.0784984142246186,0.9933584827364098,1.0461227286957948],[-0.9479777805958494,-0.05042014299619964,-0.6526856740542609,-0.41378281636528613,0.8358915954961642,-0.1706022960608416,0.702329719536047],[-0.5886136142295011,0.9167834883277085,-0.3655362799487546,1.2305769157984763,-0.37685151327665417,0.0819645032462143,-0.7431673249176024],[0.45041354406097384,0.5044838542891429,0.33964142121047675,-0.755463453721728,-0.31881342870016244,0.8844936765393723,0.8171893476178054]],[[-0.19307345910803797,0.6974383331871059,-0.9881935215906741,-0.708185385717845,0.5410574358791536,0.37916748487891927,0.6788756112902108,0.07130959731185589,0.9166855982475586,-0.41803013699284636],[-0.8700651712357461,0.6363400367886884,0.665355996082357,-0.8621003606442732,0.24243059112700444,0.11254673238586972,0.9720596774091254,0.8782104310637311,0.6252277137678561,0.3119047917527788]]],"biases":[[[-0.6646485261082156],[-0.26850439043782875],[0.6233682297055224],[-0.039510647464839635],[-0.5710721667417311],[-0.04160746463238935],[0.9397565275523996],[0.2977781100897653],[0.34733929040955597],[0.09119085339594588]],[[0.9507050365092217],[0.40427399290995275]]]},"time":24600,"isDone":true,"fitness":0.7113821138211383},{"color":"#686de0","width":10,"maxVelocity":2,"visionDistance":50,"brain":{"weights":[[[0.36395129348357214,-0.26380804872114955,0.19560037812585135,0.7115823610248917,0.03955031064175469,-0.8801012710767676,-0.6152002023723798],[0.381753135235307,-0.8387435940713528,0.644104294770822,-0.14117784606863287,0.39317224780940435,0.2469723909835263,0.5274593214100269],[-0.17655273646514338,-0.3870363872211408,-0.8323645191480197,-0.8588283536507905,-0.5062770771601937,0.7116602655182966,-0.2955934899956724],[0.2133561073825379,0.10374244788757915,-1.000958666818024,0.47053805405067384,-0.07203911987132135,-0.7582920722698129,-0.05926329173997654],[0.8063411422687442,0.5267793098881504,0.5070018557866556,-0.34676907227910747,-0.9847214405172668,0.5379317839970603,0.9940536841964609],[0.18109959886961427,0.7094851311175727,0.28981430565402,-0.4855041889888446,-0.22786135007722225,-0.633353779816909,-0.7083386545618816],[-0.17746921817129688,-0.04090110403618028,-1.3023340431177657,0.06973921629623624,-1.0784984142246186,0.9933584827364098,1.0461227286957948],[-0.9479777805958494,-0.05042014299619964,-0.6526856740542609,-0.41378281636528613,0.8358915954961642,-0.1706022960608416,0.702329719536047],[-0.5886136142295011,0.9167834883277085,-0.3655362799487546,1.2305769157984763,-0.37685151327665417,0.0819645032462143,-0.7431673249176024],[0.45041354406097384,0.5044838542891429,0.33964142121047675,-0.755463453721728,-0.31881342870016244,0.8844936765393723,0.8171893476178054]],[[-0.19307345910803797,0.6974383331871059,-0.9881935215906741,-0.708185385717845,0.5410574358791536,0.37916748487891927,0.6788756112902108,0.07130959731185589,0.9166855982475586,-0.41803013699284636],[-0.8700651712357461,0.6363400367886884,0.665355996082357,-0.8621003606442732,0.24243059112700444,0.11254673238586972,0.9720596774091254,0.8782104310637311,0.6252277137678561,0.3119047917527788]]],"biases":[[[-0.6646485261082156],[-0.26850439043782875],[0.6233682297055224],[-0.039510647464839635],[-0.5710721667417311],[-0.04160746463238935],[0.9397565275523996],[0.2977781100897653],[0.34733929040955597],[0.09119085339594588]],[[0.9507050365092217],[0.40427399290995275]]]},"time":24600,"isDone":true,"fitness":0.7113821138211383},{"color":"#686de0","width":10,"maxVelocity":2,"visionDistance":50,"brain":{"weights":[[[0.36395129348357214,-0.26380804872114955,0.19560037812585135,0.7115823610248917,0.03955031064175469,-0.8801012710767676,-0.6152002023723798],[0.381753135235307,-0.8387435940713528,0.644104294770822,-0.14117784606863287,0.39317224780940435,0.2469723909835263,0.5274593214100269],[-0.17655273646514338,-0.3870363872211408,-0.8323645191480197,-0.8588283536507905,-0.5062770771601937,0.7116602655182966,-0.2955934899956724],[0.2133561073825379,0.10374244788757915,-1.000958666818024,0.47053805405067384,-0.07203911987132135,-0.7582920722698129,-0.05926329173997654],[0.8063411422687442,0.5267793098881504,0.5070018557866556,-0.34676907227910747,-0.9847214405172668,0.5379317839970603,0.9940536841964609],[0.18109959886961427,0.7094851311175727,0.28981430565402,-0.4855041889888446,-0.22786135007722225,-0.633353779816909,-0.7083386545618816],[-0.17746921817129688,-0.04090110403618028,-1.3023340431177657,0.06973921629623624,-1.0784984142246186,0.9933584827364098,1.0461227286957948],[-0.9479777805958494,-0.05042014299619964,-0.6526856740542609,-0.41378281636528613,0.8358915954961642,-0.1706022960608416,0.702329719536047],[-0.5886136142295011,0.9167834883277085,-0.3655362799487546,1.2305769157984763,-0.37685151327665417,0.0819645032462143,-0.7431673249176024],[0.45041354406097384,0.5044838542891429,0.33964142121047675,-0.755463453721728,-0.31881342870016244,0.8844936765393723,0.8171893476178054]],[[-0.19307345910803797,0.6974383331871059,-0.9881935215906741,-0.708185385717845,0.5410574358791536,0.37916748487891927,0.6788756112902108,0.07130959731185589,0.9166855982475586,-0.41803013699284636],[-0.8700651712357461,0.6363400367886884,0.665355996082357,-0.8621003606442732,0.24243059112700444,0.11254673238586972,0.9720596774091254,0.8782104310637311,0.6252277137678561,0.3119047917527788]]],"biases":[[[-0.6646485261082156],[-0.26850439043782875],[0.6233682297055224],[-0.039510647464839635],[-0.5710721667417311],[-0.04160746463238935],[0.9397565275523996],[0.2977781100897653],[0.34733929040955597],[0.09119085339594588]],[[0.9507050365092217],[0.40427399290995275]]]},"time":24600,"isDone":true,"fitness":0.7113821138211383},{"color":"#686de0","width":10,"maxVelocity":2,"visionDistance":50,"brain":{"weights":[[[0.36395129348357214,-0.26380804872114955,0.19560037812585135,0.7115823610248917,0.03955031064175469,-0.8801012710767676,-0.6152002023723798],[0.381753135235307,-0.8387435940713528,0.644104294770822,-0.14117784606863287,0.39317224780940435,0.2469723909835263,0.5274593214100269],[-0.17655273646514338,-0.3870363872211408,-0.8323645191480197,-0.8588283536507905,-0.5062770771601937,0.7116602655182966,-0.2955934899956724],[0.2133561073825379,0.10374244788757915,-1.000958666818024,0.47053805405067384,-0.07203911987132135,-0.7582920722698129,-0.05926329173997654],[0.8063411422687442,0.5267793098881504,0.5070018557866556,-0.34676907227910747,-0.9847214405172668,0.5379317839970603,0.9940536841964609],[0.18109959886961427,0.7094851311175727,0.28981430565402,-0.4855041889888446,-0.22786135007722225,-0.633353779816909,-0.7083386545618816],[-0.17746921817129688,-0.04090110403618028,-1.3023340431177657,0.06973921629623624,-1.0784984142246186,0.9933584827364098,1.0461227286957948],[-0.9479777805958494,-0.05042014299619964,-0.6526856740542609,-0.41378281636528613,0.8358915954961642,-0.1706022960608416,0.702329719536047],[-0.5886136142295011,0.9167834883277085,-0.3655362799487546,1.2305769157984763,-0.37685151327665417,0.0819645032462143,-0.7431673249176024],[0.45041354406097384,0.5044838542891429,0.33964142121047675,-0.755463453721728,-0.31881342870016244,0.8844936765393723,0.8171893476178054]],[[-0.19307345910803797,0.6974383331871059,-0.9881935215906741,-0.708185385717845,0.5410574358791536,0.37916748487891927,0.6788756112902108,0.07130959731185589,0.9166855982475586,-0.41803013699284636],[-0.8700651712357461,0.6363400367886884,0.665355996082357,-0.8621003606442732,0.24243059112700444,0.11254673238586972,0.9720596774091254,0.8782104310637311,0.6252277137678561,0.3119047917527788]]],"biases":[[[-0.6646485261082156],[-0.26850439043782875],[0.6233682297055224],[-0.039510647464839635],[-0.5710721667417311],[-0.04160746463238935],[0.9397565275523996],[0.2977781100897653],[0.34733929040955597],[0.09119085339594588]],[[0.9507050365092217],[0.40427399290995275]]]},"time":24600,"isDone":true,"fitness":0.7113821138211383},{"color":"#686de0","width":10,"maxVelocity":2,"visionDistance":50,"brain":{"weights":[[[0.36395129348357214,-0.26380804872114955,0.19560037812585135,0.7115823610248917,0.03955031064175469,-0.8801012710767676,-0.6152002023723798],[0.381753135235307,-0.8387435940713528,0.644104294770822,-0.14117784606863287,0.39317224780940435,0.2469723909835263,0.5274593214100269],[-0.17655273646514338,-0.3870363872211408,-0.8323645191480197,-0.8588283536507905,-0.5062770771601937,0.7116602655182966,-0.2955934899956724],[0.2133561073825379,0.10374244788757915,-1.000958666818024,0.47053805405067384,-0.07203911987132135,-0.7582920722698129,-0.05926329173997654],[0.8063411422687442,0.5267793098881504,0.5070018557866556,-0.34676907227910747,-0.9847214405172668,0.5379317839970603,0.9940536841964609],[0.18109959886961427,0.7094851311175727,0.28981430565402,-0.4855041889888446,-0.22786135007722225,-0.633353779816909,-0.7083386545618816],[-0.17746921817129688,-0.04090110403618028,-1.3023340431177657,0.06973921629623624,-1.0784984142246186,0.9933584827364098,1.0461227286957948],[-0.9479777805958494,-0.05042014299619964,-0.6526856740542609,-0.41378281636528613,0.8358915954961642,-0.1706022960608416,0.702329719536047],[-0.5886136142295011,0.9167834883277085,-0.3655362799487546,1.2305769157984763,-0.37685151327665417,0.0819645032462143,-0.7431673249176024],[0.45041354406097384,0.5044838542891429,0.33964142121047675,-0.755463453721728,-0.31881342870016244,0.8844936765393723,0.8171893476178054]],[[-0.19307345910803797,0.6974383331871059,-0.9881935215906741,-0.708185385717845,0.5410574358791536,0.37916748487891927,0.6788756112902108,0.07130959731185589,0.9166855982475586,-0.41803013699284636],[-0.8700651712357461,0.6363400367886884,0.665355996082357,-0.8621003606442732,0.24243059112700444,0.11254673238586972,0.9720596774091254,0.8782104310637311,0.6252277137678561,0.3119047917527788]]],"biases":[[[-0.6646485261082156],[-0.26850439043782875],[0.6233682297055224],[-0.039510647464839635],[-0.5710721667417311],[-0.04160746463238935],[0.9397565275523996],[0.2977781100897653],[0.34733929040955597],[0.09119085339594588]],[[0.9507050365092217],[0.40427399290995275]]]},"time":24600,"isDone":true,"fitness":0.7113821138211383},{"color":"#686de0","width":10,"maxVelocity":2,"visionDistance":50,"brain":{"weights":[[[0.36395129348357214,-0.26380804872114955,0.19560037812585135,0.7115823610248917,0.03955031064175469,-0.8801012710767676,-0.6152002023723798],[0.381753135235307,-0.8387435940713528,0.644104294770822,-0.14117784606863287,0.39317224780940435,0.2469723909835263,0.5274593214100269],[-0.17655273646514338,-0.3870363872211408,-0.8323645191480197,-0.8588283536507905,-0.5062770771601937,0.7116602655182966,-0.2955934899956724],[0.2133561073825379,0.10374244788757915,-1.000958666818024,0.47053805405067384,-0.07203911987132135,-0.7582920722698129,-0.05926329173997654],[0.8063411422687442,0.5267793098881504,0.5070018557866556,-0.34676907227910747,-0.9847214405172668,0.5379317839970603,0.9940536841964609],[0.18109959886961427,0.7094851311175727,0.28981430565402,-0.4855041889888446,-0.22786135007722225,-0.633353779816909,-0.7083386545618816],[-0.17746921817129688,-0.04090110403618028,-1.3023340431177657,0.06973921629623624,-1.0784984142246186,0.9933584827364098,1.0461227286957948],[-0.9479777805958494,-0.05042014299619964,-0.6526856740542609,-0.41378281636528613,0.8358915954961642,-0.1706022960608416,0.702329719536047],[-0.5886136142295011,0.9167834883277085,-0.3655362799487546,1.2305769157984763,-0.37685151327665417,0.0819645032462143,-0.7431673249176024],[0.45041354406097384,0.5044838542891429,0.33964142121047675,-0.755463453721728,-0.31881342870016244,0.8844936765393723,0.8171893476178054]],[[-0.19307345910803797,0.6974383331871059,-0.9881935215906741,-0.708185385717845,0.5410574358791536,0.37916748487891927,0.6788756112902108,0.07130959731185589,0.9166855982475586,-0.41803013699284636],[-0.8700651712357461,0.6363400367886884,0.665355996082357,-0.8621003606442732,0.24243059112700444,0.11254673238586972,0.9720596774091254,0.8782104310637311,0.6252277137678561,0.3119047917527788]]],"biases":[[[-0.6646485261082156],[-0.26850439043782875],[0.6233682297055224],[-0.039510647464839635],[-0.5710721667417311],[-0.04160746463238935],[0.9397565275523996],[0.2977781100897653],[0.34733929040955597],[0.09119085339594588]],[[0.9507050365092217],[0.40427399290995275]]]},"time":24600,"isDone":true,"fitness":0.7113821138211383},{"color":"#686de0","width":10,"maxVelocity":2,"visionDistance":50,"brain":{"weights":[[[0.36395129348357214,-0.26380804872114955,0.19560037812585135,0.7115823610248917,0.03955031064175469,-0.8801012710767676,-0.6152002023723798],[0.381753135235307,-0.8387435940713528,0.644104294770822,-0.14117784606863287,0.39317224780940435,0.2469723909835263,0.5274593214100269],[-0.17655273646514338,-0.3870363872211408,-0.8323645191480197,-0.8588283536507905,-0.5062770771601937,0.7116602655182966,-0.2955934899956724],[0.2133561073825379,0.10374244788757915,-1.000958666818024,0.47053805405067384,-0.07203911987132135,-0.7582920722698129,-0.05926329173997654],[0.8063411422687442,0.5267793098881504,0.5070018557866556,-0.34676907227910747,-0.9847214405172668,0.5379317839970603,0.9940536841964609],[0.18109959886961427,0.7094851311175727,0.28981430565402,-0.4855041889888446,-0.22786135007722225,-0.633353779816909,-0.7083386545618816],[-0.17746921817129688,-0.04090110403618028,-1.3023340431177657,0.06973921629623624,-1.0784984142246186,0.9933584827364098,1.0461227286957948],[-0.9479777805958494,-0.05042014299619964,-0.6526856740542609,-0.41378281636528613,0.8358915954961642,-0.1706022960608416,0.702329719536047],[-0.5886136142295011,0.9167834883277085,-0.3655362799487546,1.2305769157984763,-0.37685151327665417,0.0819645032462143,-0.7431673249176024],[0.45041354406097384,0.5044838542891429,0.33964142121047675,-0.755463453721728,-0.31881342870016244,0.8844936765393723,0.8171893476178054]],[[-0.19307345910803797,0.6974383331871059,-0.9881935215906741,-0.708185385717845,0.5410574358791536,0.37916748487891927,0.6788756112902108,0.07130959731185589,0.9166855982475586,-0.41803013699284636],[-0.8700651712357461,0.6363400367886884,0.665355996082357,-0.8621003606442732,0.24243059112700444,0.11254673238586972,0.9720596774091254,0.8782104310637311,0.6252277137678561,0.3119047917527788]]],"biases":[[[-0.6646485261082156],[-0.26850439043782875],[0.6233682297055224],[-0.039510647464839635],[-0.5710721667417311],[-0.04160746463238935],[0.9397565275523996],[0.2977781100897653],[0.34733929040955597],[0.09119085339594588]],[[0.9507050365092217],[0.40427399290995275]]]},"time":24600,"isDone":true,"fitness":0.7113821138211383},{"color":"#686de0","width":10,"maxVelocity":2,"visionDistance":50,"brain":{"weights":[[[0.36395129348357214,-0.26380804872114955,0.19560037812585135,0.7115823610248917,0.03955031064175469,-0.8801012710767676,-0.6152002023723798],[0.381753135235307,-0.8387435940713528,0.644104294770822,-0.14117784606863287,0.39317224780940435,0.2469723909835263,0.5274593214100269],[-0.17655273646514338,-0.3870363872211408,-0.8323645191480197,-0.8588283536507905,-0.5062770771601937,0.7116602655182966,-0.2955934899956724],[0.2133561073825379,0.10374244788757915,-1.000958666818024,0.47053805405067384,-0.07203911987132135,-0.7582920722698129,-0.05926329173997654],[0.8063411422687442,0.5267793098881504,0.5070018557866556,-0.34676907227910747,-0.9847214405172668,0.5379317839970603,0.9940536841964609],[0.18109959886961427,0.7094851311175727,0.28981430565402,-0.4855041889888446,-0.22786135007722225,-0.633353779816909,-0.7083386545618816],[-0.17746921817129688,-0.04090110403618028,-1.3023340431177657,0.06973921629623624,-1.0784984142246186,0.9933584827364098,1.0461227286957948],[-0.9479777805958494,-0.05042014299619964,-0.6526856740542609,-0.41378281636528613,0.8358915954961642,-0.1706022960608416,0.702329719536047],[-0.5886136142295011,0.9167834883277085,-0.3655362799487546,1.2305769157984763,-0.37685151327665417,0.0819645032462143,-0.7431673249176024],[0.45041354406097384,0.5044838542891429,0.33964142121047675,-0.755463453721728,-0.31881342870016244,0.8844936765393723,0.8171893476178054]],[[-0.19307345910803797,0.6974383331871059,-0.9881935215906741,-0.708185385717845,0.5410574358791536,0.37916748487891927,0.6788756112902108,0.07130959731185589,0.9166855982475586,-0.41803013699284636],[-0.8700651712357461,0.6363400367886884,0.665355996082357,-0.8621003606442732,0.24243059112700444,0.11254673238586972,0.9720596774091254,0.8782104310637311,0.6252277137678561,0.3119047917527788]]],"biases":[[[-0.6646485261082156],[-0.26850439043782875],[0.6233682297055224],[-0.039510647464839635],[-0.5710721667417311],[-0.04160746463238935],[0.9397565275523996],[0.2977781100897653],[0.34733929040955597],[0.09119085339594588]],[[0.9507050365092217],[0.40427399290995275]]]},"time":24600,"isDone":true,"fitness":0.7113821138211383},{"color":"#686de0","width":10,"maxVelocity":2,"visionDistance":50,"brain":{"weights":[[[0.36395129348357214,-0.26380804872114955,0.19560037812585135,0.7115823610248917,0.03955031064175469,-0.8801012710767676,-0.6152002023723798],[0.381753135235307,-0.8387435940713528,0.644104294770822,-0.14117784606863287,0.39317224780940435,0.2469723909835263,0.5274593214100269],[-0.17655273646514338,-0.3870363872211408,-0.8323645191480197,-0.8588283536507905,-0.5062770771601937,0.7116602655182966,-0.2955934899956724],[0.2133561073825379,0.10374244788757915,-1.000958666818024,0.47053805405067384,-0.07203911987132135,-0.7582920722698129,-0.05926329173997654],[0.8063411422687442,0.5267793098881504,0.5070018557866556,-0.34676907227910747,-0.9847214405172668,0.5379317839970603,0.9940536841964609],[0.18109959886961427,0.7094851311175727,0.28981430565402,-0.4855041889888446,-0.22786135007722225,-0.633353779816909,-0.7083386545618816],[-0.17746921817129688,-0.04090110403618028,-1.3023340431177657,0.06973921629623624,-1.0784984142246186,0.9933584827364098,1.0461227286957948],[-0.9479777805958494,-0.05042014299619964,-0.6526856740542609,-0.41378281636528613,0.8358915954961642,-0.1706022960608416,0.702329719536047],[-0.5886136142295011,0.9167834883277085,-0.3655362799487546,1.2305769157984763,-0.37685151327665417,0.0819645032462143,-0.7431673249176024],[0.45041354406097384,0.5044838542891429,0.33964142121047675,-0.755463453721728,-0.31881342870016244,0.8844936765393723,0.8171893476178054]],[[-0.19307345910803797,0.6974383331871059,-0.9881935215906741,-0.708185385717845,0.5410574358791536,0.37916748487891927,0.6788756112902108,0.07130959731185589,0.9166855982475586,-0.41803013699284636],[-0.8700651712357461,0.6363400367886884,0.665355996082357,-0.8621003606442732,0.24243059112700444,0.11254673238586972,0.9720596774091254,0.8782104310637311,0.6252277137678561,0.3119047917527788]]],"biases":[[[-0.6646485261082156],[-0.26850439043782875],[0.6233682297055224],[-0.039510647464839635],[-0.5710721667417311],[-0.04160746463238935],[0.9397565275523996],[0.2977781100897653],[0.34733929040955597],[0.09119085339594588]],[[0.9507050365092217],[0.40427399290995275]]]},"time":24600,"isDone":true,"fitness":0.7113821138211383},{"color":"#686de0","width":10,"maxVelocity":2,"visionDistance":50,"brain":{"weights":[[[0.36395129348357214,-0.26380804872114955,0.19560037812585135,0.7115823610248917,0.03955031064175469,-0.8801012710767676,-0.6152002023723798],[0.381753135235307,-0.8387435940713528,0.644104294770822,-0.14117784606863287,0.39317224780940435,0.2469723909835263,0.5274593214100269],[-0.17655273646514338,-0.3870363872211408,-0.8323645191480197,-0.8588283536507905,-0.5062770771601937,0.7116602655182966,-0.2955934899956724],[0.2133561073825379,0.10374244788757915,-1.000958666818024,0.47053805405067384,-0.07203911987132135,-0.7582920722698129,-0.05926329173997654],[0.8063411422687442,0.5267793098881504,0.5070018557866556,-0.34676907227910747,-0.9847214405172668,0.5379317839970603,0.9940536841964609],[0.18109959886961427,0.7094851311175727,0.28981430565402,-0.4855041889888446,-0.22786135007722225,-0.633353779816909,-0.7083386545618816],[-0.17746921817129688,-0.04090110403618028,-1.3023340431177657,0.06973921629623624,-1.0784984142246186,0.9933584827364098,1.0461227286957948],[-0.9479777805958494,-0.05042014299619964,-0.6526856740542609,-0.41378281636528613,0.8358915954961642,-0.1706022960608416,0.702329719536047],[-0.5886136142295011,0.9167834883277085,-0.3655362799487546,1.2305769157984763,-0.37685151327665417,0.0819645032462143,-0.7431673249176024],[0.45041354406097384,0.5044838542891429,0.33964142121047675,-0.755463453721728,-0.31881342870016244,0.8844936765393723,0.8171893476178054]],[[-0.19307345910803797,0.6974383331871059,-0.9881935215906741,-0.708185385717845,0.5410574358791536,0.37916748487891927,0.6788756112902108,0.07130959731185589,0.9166855982475586,-0.41803013699284636],[-0.8700651712357461,0.6363400367886884,0.665355996082357,-0.8621003606442732,0.24243059112700444,0.11254673238586972,0.9720596774091254,0.8782104310637311,0.6252277137678561,0.3119047917527788]]],"biases":[[[-0.6646485261082156],[-0.26850439043782875],[0.6233682297055224],[-0.039510647464839635],[-0.5710721667417311],[-0.04160746463238935],[0.9397565275523996],[0.2977781100897653],[0.34733929040955597],[0.09119085339594588]],[[0.9507050365092217],[0.40427399290995275]]]},"time":24600,"isDone":true,"fitness":0.7113821138211383},{"color":"#686de0","width":10,"maxVelocity":2,"visionDistance":50,"brain":{"weights":[[[0.36395129348357214,-0.26380804872114955,0.19560037812585135,0.7115823610248917,0.03955031064175469,-0.8801012710767676,-0.6152002023723798],[0.381753135235307,-0.8387435940713528,0.644104294770822,-0.14117784606863287,0.39317224780940435,0.2469723909835263,0.5274593214100269],[-0.17655273646514338,-0.3870363872211408,-0.8323645191480197,-0.8588283536507905,-0.5062770771601937,0.7116602655182966,-0.2955934899956724],[0.2133561073825379,0.10374244788757915,-1.000958666818024,0.47053805405067384,-0.07203911987132135,-0.7582920722698129,-0.05926329173997654],[0.8063411422687442,0.5267793098881504,0.5070018557866556,-0.34676907227910747,-0.9847214405172668,0.5379317839970603,0.9940536841964609],[0.18109959886961427,0.7094851311175727,0.28981430565402,-0.4855041889888446,-0.22786135007722225,-0.633353779816909,-0.7083386545618816],[-0.17746921817129688,-0.04090110403618028,-1.3023340431177657,0.06973921629623624,-1.0784984142246186,0.9933584827364098,1.0461227286957948],[-0.9479777805958494,-0.05042014299619964,-0.6526856740542609,-0.41378281636528613,0.8358915954961642,-0.1706022960608416,0.702329719536047],[-0.5886136142295011,0.9167834883277085,-0.3655362799487546,1.2305769157984763,-0.37685151327665417,0.0819645032462143,-0.7431673249176024],[0.45041354406097384,0.5044838542891429,0.33964142121047675,-0.755463453721728,-0.31881342870016244,0.8844936765393723,0.8171893476178054]],[[-0.19307345910803797,0.6974383331871059,-0.9881935215906741,-0.708185385717845,0.5410574358791536,0.37916748487891927,0.6788756112902108,0.07130959731185589,0.9166855982475586,-0.41803013699284636],[-0.8700651712357461,0.6363400367886884,0.665355996082357,-0.8621003606442732,0.24243059112700444,0.11254673238586972,0.9720596774091254,0.8782104310637311,0.6252277137678561,0.3119047917527788]]],"biases":[[[-0.6646485261082156],[-0.26850439043782875],[0.6233682297055224],[-0.039510647464839635],[-0.5710721667417311],[-0.04160746463238935],[0.9397565275523996],[0.2977781100897653],[0.34733929040955597],[0.09119085339594588]],[[0.9507050365092217],[0.40427399290995275]]]},"time":24600,